{"learner":{"attributes":{"scikit_learn":"{\"_estimator_type\": \"classifier\"}"},"feature_names":["transaction_count_10m","total_amount_10m","credit_score"],"feature_types":["int","float","float"],"gradient_booster":{"model":{"cats":{"enc":[],"feature_segments":[],"sorted_idx":[]},"gbtree_model_param":{"num_parallel_tree":"1","num_trees":"100"},"iteration_indptr":[0,1,2,3,4,5,6,7,8,9,10,11,12,13,14,15,16,17,18,19,20,21,22,23,24,25,26,27,28,29,30,31,32,33,34,35,36,37,38,39,40,41,42,43,44,45,46,47,48,49,50,51,52,53,54,55,56,57,58,59,60,61,62,63,64,65,66,67,68,69,70,71,72,73,74,75,76,77,78,79,80,81,82,83,84,85,86,87,88,89,90,91,92,93,94,95,96,97,98,99,100],"tree_info":[0,0,0,0,0,0,0,0,0,0,0,0,0,0,0,0,0,0,0,0,0,0,0,0,0,0,0,0,0,0,0,0,0,0,0,0,0,0,0,0,0,0,0,0,0,0,0,0,0,0,0,0,0,0,0,0,0,0,0,0,0,0,0,0,0,0,0,0,0,0,0,0,0,0,0,0,0,0,0,0,0,0,0,0,0,0,0,0,0,0,0,0,0,0,0,0,0,0,0,0],"trees":[{"base_weights":[-4.249614E-10,-1.047327E0,2.8222065E0,-1.0833404E0,1.4595246E0,1.898508E-1,-1.0953168E0,-3.312931E-1,-3.2618058E-1,-2.5484693E-1,2.7992368E-1],"categories":[],"categories_nodes":[],"categories_segments":[],"categories_sizes":[],"default_left":[0,0,0,0,0,0,0,0,0,0,0],"id":0,"left_children":[1,3,-1,5,-1,-1,7,-1,9,-1,-1],"loss_changes":[3.6373716E3,7.6003845E1,0E0,7.496399E0,0E0,0E0,1.9160767E0,0E0,4.234219E0,0E0,0E0],"parents":[2147483647,0,0,1,1,3,3,6,6,8,8],"right_children":[2,4,-1,6,-1,-1,8,-1,10,-1,-1],"split_conditions":[3.5348822E2,8E0,2.8222065E0,5.700436E2,1.4595246E0,1.898508E-1,6E0,-3.312931E-1,7.865221E1,-2.5484693E-1,2.7992368E-1],"split_indices":[1,0,0,2,0,0,0,0,1,0,0],"split_type":[0,0,0,0,0,0,0,0,0,0,0],"sum_hessian":[3.6717978E2,3.3119617E2,3.598362E1,3.3000284E2,1.1933343E0,1.9276938E0,3.2807513E2,3.2385257E2,4.2225676E0,3.2128232E0,1.0097444E0],"tree_param":{"num_deleted":"0","num_feature":"3","num_nodes":"11","size_leaf_vector":"1"}},{"base_weights":[-3.66311E-1,-1.0190965E0,1.4649853E0,-1.058389E0,1.7447789E0,-1.9041997E-1,4.5688307E-1,-1.8392773E-2,-1.0657829E0,6.3090616E-1,1.7161135E-1,-3.2269782E-1,2.6251546E-1,-3.23174E-1,-7.5268304E-1,-2.9695186E-1,2.7220476E-1],"categories":[],"categories_nodes":[],"categories_segments":[],"categories_sizes":[],"default_left":[0,0,0,0,0,0,0,0,0,0,0,0,0,0,0,0,0],"id":1,"left_children":[1,3,5,7,9,11,-1,-1,13,-1,-1,-1,-1,-1,15,-1,-1],"loss_changes":[4.137359E2,2.9519348E1,9.023941E0,1.7914734E0,4.5621014E-1,4.684045E0,0E0,0E0,8.633423E-2,0E0,0E0,0E0,0E0,0E0,5.6804132E0,0E0,0E0],"parents":[2147483647,0,0,1,1,2,2,3,3,4,4,5,5,8,8,14,14],"right_children":[2,4,6,8,10,12,-1,-1,14,-1,-1,-1,-1,-1,16,-1,-1],"split_conditions":[2.7040915E2,7E0,3E0,5.700436E2,6.579246E2,5.0573422E2,4.5688307E-1,-1.8392773E-2,5E0,6.3090616E-1,1.7161135E-1,-3.2269782E-1,2.6251546E-1,-3.23174E-1,1.3356448E2,-2.9695186E-1,2.7220476E-1],"split_indices":[1,0,0,2,2,1,0,0,0,0,0,0,0,0,1,0,0],"split_type":[0,0,0,0,0,0,0,0,0,0,0,0,0,0,0,0,0],"sum_hessian":[3.4384525E2,2.53814E2,9.003124E1,2.5086465E2,2.9493442E0,2.9681919E0,8.706305E1,1.9150053E0,2.4894965E2,1.6515782E0,1.297766E0,1.6159933E0,1.3521985E0,2.3780223E2,1.1147414E1,1.0107197E1,1.0402176E0],"tree_param":{"num_deleted":"0","num_feature":"3","num_nodes":"17","size_leaf_vector":"1"}},{"base_weights":[-3.5032743E-1,-9.831434E-1,1.2674178E0,-1.0290821E0,1.2722033E0,-1.5140101E-1,3.9710268E-1,-3.1621045E-1,-4.9496475E-1,9.657518E-2,4.9776265E-1,-2.663555E-1,2.316398E-1,-7.361202E-1,2.2237681E-1,1.3325942E-1,-2.8075126E-1],"categories":[],"categories_nodes":[],"categories_segments":[],"categories_sizes":[],"default_left":[0,0,0,0,0,0,0,0,0,0,0,0,0,0,0,0,0],"id":2,"left_children":[1,3,5,7,9,11,-1,-1,13,-1,-1,-1,-1,15,-1,-1,-1],"loss_changes":[2.7801523E2,2.1502075E1,6.3029785E0,2.0313416E0,1.061151E0,3.279082E0,0E0,0E0,3.656591E0,0E0,0E0,0E0,0E0,2.5923152E0,0E0,0E0,0E0],"parents":[2147483647,0,0,1,1,2,2,3,3,4,4,5,5,8,8,13,13],"right_children":[2,4,6,8,10,12,-1,-1,14,-1,-1,-1,-1,16,-1,-1,-1],"split_conditions":[2.7040915E2,7E0,3E0,5E0,7.092802E1,5.0573422E2,3.9710268E-1,-3.1621045E-1,1.3561536E2,9.657518E-2,4.9776265E-1,-2.663555E-1,2.316398E-1,6.5130164E2,2.2237681E-1,1.3325942E-1,-2.8075126E-1],"split_indices":[1,0,0,0,1,1,0,0,1,0,0,0,0,2,0,0,0],"split_type":[0,0,0,0,0,0,0,0,0,0,0,0,0,0,0,0,0],"sum_hessian":[2.6935236E2,1.9389745E2,7.5454895E1,1.905597E2,3.3377566E0,2.813265E0,7.264163E1,1.8112456E2,9.435137E0,1.496048E0,1.8417085E0,1.5866576E0,1.2266073E0,8.233524E0,1.2016128E0,1.0143913E0,7.219133E0],"tree_param":{"num_deleted":"0","num_feature":"3","num_nodes":"17","size_leaf_vector":"1"}},{"base_weights":[-3.3576235E-1,-9.5098704E-1,1.1447362E0,-1.0039907E0,1.001145E0,-1.1817369E-1,3.60848E-1,-3.1081086E-1,-4.1500947E-1,7.686784E-2,3.9493626E-1,-2.2205153E-1,2.071509E-1,-6.63796E-1,1.6663468E-1,1.1826184E-1,-2.6777288E-1],"categories":[],"categories_nodes":[],"categories_segments":[],"categories_sizes":[],"default_left":[0,0,0,0,0,0,0,0,0,0,0,0,0,0,0,0,0],"id":3,"left_children":[1,3,5,7,9,11,-1,-1,13,-1,-1,-1,-1,15,-1,-1,-1],"loss_changes":[1.9218448E2,1.6397186E1,4.693863E0,2.3129272E0,7.0390654E-1,2.3414361E0,0E0,0E0,2.581997E0,0E0,0E0,0E0,0E0,2.2282727E0,0E0,0E0,0E0],"parents":[2147483647,0,0,1,1,2,2,3,3,4,4,5,5,8,8,13,13],"right_children":[2,4,6,8,10,12,-1,-1,14,-1,-1,-1,-1,16,-1,-1,-1],"split_conditions":[2.7040915E2,7E0,3E0,5E0,7.092802E1,5.0573422E2,3.60848E-1,-3.1081086E-1,1.3561536E2,7.686784E-2,3.9493626E-1,-2.2205153E-1,2.071509E-1,6.422496E2,1.6663468E-1,1.1826184E-1,-2.6777288E-1],"split_indices":[1,0,0,0,1,1,0,0,1,0,0,0,0,2,0,0,0],"split_type":[0,0,0,0,0,0,0,0,0,0,0,0,0,0,0,0,0],"sum_hessian":[2.0880199E2,1.4775832E2,6.1043663E1,1.4432533E2,3.4329782E0,2.6388912E0,5.840477E1,1.3615817E2,8.167162E0,1.5600272E0,1.8729508E0,1.5394938E0,1.0993974E0,6.7521734E0,1.4149889E0,1.071928E0,5.6802454E0],"tree_param":{"num_deleted":"0","num_feature":"3","num_nodes":"17","size_leaf_vector":"1"}},{"base_weights":[-3.2201076E-1,-9.2014676E-1,1.0551147E0,-9.80892E-1,8.2222944E-1,-8.961289E-2,3.3502328E-1,-3.065942E-1,-3.4568426E-1,3.5614833E-1,3.8493194E-2,1.3087621E-1,-1.9476205E-1,1.2506652E-1,-6.076359E-1,-2.5114444E-1,4.6562802E-2],"categories":[],"categories_nodes":[],"categories_segments":[],"categories_sizes":[],"default_left":[0,0,0,0,0,0,0,0,0,0,0,0,0,0,0,0,0],"id":4,"left_children":[1,3,5,7,9,11,-1,-1,13,-1,-1,-1,-1,-1,15,-1,-1],"loss_changes":[1.345941E2,1.2833534E1,3.598507E0,2.5245056E0,9.548507E-1,1.3011259E0,0E0,0E0,1.8933365E0,0E0,0E0,0E0,0E0,0E0,1.2710876E0,0E0,0E0],"parents":[2147483647,0,0,1,1,2,2,3,3,4,4,5,5,8,8,14,14],"right_children":[2,4,6,8,10,12,-1,-1,14,-1,-1,-1,-1,-1,16,-1,-1],"split_conditions":[2.7040915E2,7E0,3E0,5E0,6.579246E2,6.6005743E2,3.3502328E-1,-3.065942E-1,6.608079E2,3.5614833E-1,3.8493194E-2,1.3087621E-1,-1.9476205E-1,1.2506652E-1,1.3561536E2,-2.5114444E-1,4.6562802E-2],"split_indices":[1,0,0,0,2,2,0,0,2,0,0,0,0,0,1,0,0],"split_type":[0,0,0,0,0,0,0,0,0,0,0,0,0,0,0,0,0],"sum_hessian":[1.6122154E2,1.1263283E2,4.8588722E1,1.0926066E2,3.3721654E0,2.4590685E0,4.6129654E1,1.0205059E2,7.21007E0,1.7441244E0,1.628041E0,1.3813668E0,1.0777016E0,1.6922517E0,5.5178185E0,4.166784E0,1.3510348E0],"tree_param":{"num_deleted":"0","num_feature":"3","num_nodes":"17","size_leaf_vector":"1"}},{"base_weights":[-3.0859855E-1,-8.8816583E-1,9.759478E-1,-9.775339E-1,4.2412877E-1,9.7017206E-2,3.248449E-1,-3.030958E-1,-3.4404954E-1,9.2624474E-1,-1.4186579E-1,-5.8646095E-1,2.7124426E-1,-2.2305667E-1,2.1395016E-1,3.8280055E-1,1.0116722E-1,5.4337468E-2,-2.8931868E-1,1.24321446E-1,-2.5108168E-2],"categories":[],"categories_nodes":[],"categories_segments":[],"categories_sizes":[],"default_left":[0,0,0,0,0,0,0,0,0,0,0,0,0,0,0,0,0,0,0,0,0],"id":5,"left_children":[1,3,5,7,9,11,-1,-1,13,15,-1,17,-1,-1,19,-1,-1,-1,-1,-1,-1],"loss_changes":[9.4454895E1,1.0635155E1,3.610855E0,1.3532715E0,3.254795E0,3.5020604E0,0E0,0E0,1.3953574E0,4.6534777E-1,0E0,1.1968457E0,0E0,0E0,2.1907595E-1,0E0,0E0,0E0,0E0,0E0,0E0],"parents":[2147483647,0,0,1,1,2,2,3,3,4,4,5,5,8,8,9,9,11,11,14,14],"right_children":[2,4,6,8,10,12,-1,-1,14,16,-1,18,-1,-1,20,-1,-1,-1,-1,-1,-1],"split_conditions":[2.7040915E2,6E0,5.0573422E2,5E0,6.9810425E2,5E0,3.248449E-1,-3.030958E-1,5.3965878E1,5.966091E2,-1.4186579E-1,6.435518E2,2.7124426E-1,-2.2305667E-1,6.759068E2,3.8280055E-1,1.0116722E-1,5.4337468E-2,-2.8931868E-1,1.24321446E-1,-2.5108168E-2],"split_indices":[1,0,1,0,2,0,0,0,1,2,0,2,0,0,2,0,0,0,0,0,0],"split_type":[0,0,0,0,0,0,0,0,0,0,0,0,0,0,0,0,0,0,0,0,0],"sum_hessian":[1.2470915E2,8.614875E1,3.85604E1,8.089486E1,5.253892E0,4.3870773E0,3.417332E1,7.6348656E1,4.5462074E0,3.347499E0,1.9063932E0,2.5235415E0,1.8635358E0,2.4556947E0,2.0905128E0,1.3685509E0,1.9789481E0,1.004385E0,1.5191566E0,1.0147946E0,1.075718E0],"tree_param":{"num_deleted":"0","num_feature":"3","num_nodes":"21","size_leaf_vector":"1"}},{"base_weights":[-2.9385376E-1,-8.7024075E-1,8.9724916E-1,-9.4568E-1,5.9657675E-1,-8.004149E-2,1.0432074E0,9.120856E-2,-9.7468364E-1,8.745759E-3,2.9252E-1,1.7771286E-1,-1.8688674E-1,1.1690241E-1,3.227639E-1,-3.0043834E-1,-4.7885373E-1,-2.2057419E-1,2.5391737E-2],"categories":[],"categories_nodes":[],"categories_segments":[],"categories_sizes":[],"default_left":[0,0,0,0,0,0,0,0,0,0,0,0,0,0,0,0,0,0,0],"id":6,"left_children":[1,3,5,7,9,11,13,-1,15,-1,-1,-1,-1,-1,-1,-1,17,-1,-1],"loss_changes":[6.767318E1,7.8860703E0,4.686075E0,2.591381E0,7.983724E-1,2.2387097E0,1.817112E-1,0E0,3.4522247E-1,0E0,0E0,0E0,0E0,0E0,0E0,0E0,7.989434E-1,0E0,0E0],"parents":[2147483647,0,0,1,1,2,2,3,3,4,4,5,5,6,6,8,8,16,16],"right_children":[2,4,6,8,10,12,14,-1,16,-1,-1,-1,-1,-1,-1,-1,18,-1,-1],"split_conditions":[2.0954037E2,7E0,4E0,5.756767E2,7.092802E1,6.237447E2,5E0,9.120856E-2,1.3561536E2,8.745759E-3,2.9252E-1,1.7771286E-1,-1.8688674E-1,1.1690241E-1,3.227639E-1,-3.0043834E-1,5E0,-2.2057419E-1,2.5391737E-2],"split_indices":[1,0,0,2,1,2,0,0,1,0,0,0,0,0,0,0,0,0,0],"split_type":[0,0,0,0,0,0,0,0,0,0,0,0,0,0,0,0,0,0,0],"sum_hessian":[9.643456E1,6.516833E1,3.1266243E1,6.231853E1,2.8497934E0,4.121512E0,2.714473E1,1.198423E0,6.1120106E1,1.5712423E0,1.2785511E0,1.8004677E0,2.3210442E0,1.9079186E0,2.5236813E1,5.70209E1,4.099207E0,2.607824E0,1.491383E0],"tree_param":{"num_deleted":"0","num_feature":"3","num_nodes":"19","size_leaf_vector":"1"}},{"base_weights":[-2.7581298E-1,-7.603963E-1,3.041179E-1,-9.7599614E-1,2.676041E-1,3.821756E-2,-3.0108786E-1,-4.814145E-1,6.607986E-1,5.86591E-2,-2.27537E-1,2.5794008E-1,1.0884927E-2],"categories":[],"categories_nodes":[],"categories_segments":[],"categories_sizes":[],"default_left":[0,0,0,0,0,0,0,0,0,0,0,0,0],"id":7,"left_children":[1,3,-1,5,7,-1,-1,9,11,-1,-1,-1,-1],"loss_changes":[4.8378273E1,1.2661209E1,0E0,1.5443611E0,3.4058487E0,0E0,0E0,9.336591E-1,8.756311E-1,0E0,0E0,0E0,0E0],"parents":[2147483647,0,0,1,1,3,3,4,4,7,7,8,8],"right_children":[2,4,-1,6,8,-1,-1,10,12,-1,-1,-1,-1],"split_conditions":[5.0573422E2,5E0,3.041179E-1,5.578028E2,5.3965878E1,3.821756E-2,-3.0108786E-1,6.555019E2,6.992025E2,5.86591E-2,-2.27537E-1,2.5794008E-1,1.0884927E-2],"split_indices":[1,0,0,2,1,0,0,2,2,0,0,0,0],"split_type":[0,0,0,0,0,0,0,0,0,0,0,0,0],"sum_hessian":[7.518542E1,5.4947548E1,2.0237865E1,4.546325E1,9.4843E0,1.0224311E0,4.4440815E1,3.1876314E0,6.2966685E0,1.0111461E0,2.1764855E0,4.489381E0,1.8072877E0],"tree_param":{"num_deleted":"0","num_feature":"3","num_nodes":"13","size_leaf_vector":"1"}},{"base_weights":[-2.6072913E-1,-7.959754E-1,8.053701E-1,-2.9371047E-1,-1.1742322E-2,8.39218E-2,3.0410522E-1,3.1128713E-1,-3.8577342E-1,-4.836785E-1,2.1764389E-1,-2.4977987E-1,2.4250878E-1,2.295577E-2,-2.2405322E-1,1.4275767E-1,-2.6464188E-2],"categories":[],"categories_nodes":[],"categories_segments":[],"categories_sizes":[],"default_left":[0,0,0,0,0,0,0,0,0,0,0,0,0,0,0,0,0],"id":8,"left_children":[1,3,5,-1,7,9,-1,-1,11,13,-1,-1,15,-1,-1,-1,-1],"loss_changes":[3.479436E1,5.78117E0,2.9962196E0,0E0,3.7947109E0,2.4206762E0,0E0,0E0,2.196447E0,5.901999E-1,0E0,0E0,3.2962388E-1,0E0,0E0,0E0,0E0],"parents":[2147483647,0,0,1,1,2,2,4,4,5,5,8,8,9,9,12,12],"right_children":[2,4,6,-1,8,10,-1,-1,12,14,-1,-1,16,-1,-1,-1,-1],"split_conditions":[2.0954037E2,5E0,5E0,-2.9371047E-1,5.966091E2,5.0573422E2,3.0410522E-1,3.1128713E-1,9.0489006E1,6.422496E2,2.1764389E-1,-2.4977987E-1,1.415277E2,2.295577E-2,-2.2405322E-1,1.4275767E-1,-2.6464188E-2],"split_indices":[1,0,0,0,2,1,0,0,1,2,0,0,1,0,0,0,0],"split_type":[0,0,0,0,0,0,0,0,0,0,0,0,0,0,0,0,0],"sum_hessian":[5.8852383E1,3.9349785E1,1.9502596E1,3.1701475E1,7.6483107E0,4.6838846E0,1.4818711E1,1.5435703E0,6.1047406E0,2.6157556E0,2.068129E0,3.377504E0,2.7272365E0,1.0627424E0,1.5530131E0,1.3417114E0,1.3855251E0],"tree_param":{"num_deleted":"0","num_feature":"3","num_nodes":"17","size_leaf_vector":"1"}},{"base_weights":[-2.4284025E-1,-7.525326E-1,7.5847113E-1,-2.900095E-1,2.1324798E-3,7.148944E-2,2.9467967E-1,2.559045E-1,-3.3029234E-1,-4.2629382E-1,2.0100522E-1,-2.235223E-1,2.4558575E-1,1.9342657E-2,-2.0360136E-1,1.4651641E-1,-2.2040706E-2],"categories":[],"categories_nodes":[],"categories_segments":[],"categories_sizes":[],"default_left":[0,0,0,0,0,0,0,0,0,0,0,0,0,0,0,0,0],"id":9,"left_children":[1,3,5,-1,7,9,-1,-1,11,13,-1,-1,15,-1,-1,-1,-1],"loss_changes":[2.465416E1,5.1373405E0,2.4535913E0,0E0,2.550642E0,1.8087276E0,0E0,0E0,1.732933E0,4.6514183E-1,0E0,0E0,3.0461013E-1,0E0,0E0,0E0,0E0],"parents":[2147483647,0,0,1,1,2,2,4,4,5,5,8,8,9,9,12,12],"right_children":[2,4,6,-1,8,10,-1,-1,12,14,-1,-1,16,-1,-1,-1,-1],"split_conditions":[2.0954037E2,5E0,5E0,-2.900095E-1,5.966091E2,5.0573422E2,2.9467967E-1,2.559045E-1,1.0477401E2,6.422496E2,2.0100522E-1,-2.235223E-1,1.415277E2,1.9342657E-2,-2.0360136E-1,1.4651641E-1,-2.2040706E-2],"split_indices":[1,0,0,0,2,1,0,0,1,2,0,0,1,0,0,0,0],"split_type":[0,0,0,0,0,0,0,0,0,0,0,0,0,0,0,0,0],"sum_hessian":[4.6188946E1,3.0773119E1,1.5415829E1,2.3751686E1,7.0214324E0,4.1121626E0,1.1303666E1,1.532576E0,5.488857E0,2.4021266E0,1.7100362E0,3.0199218E0,2.4689348E0,1.0686238E0,1.3335029E0,1.100622E0,1.3683127E0],"tree_param":{"num_deleted":"0","num_feature":"3","num_nodes":"17","size_leaf_vector":"1"}},{"base_weights":[-2.2246575E-1,-6.1681837E-1,2.7763385E-1,-9.094495E-1,1.7227137E-1,2.8174635E-2,-2.8978917E-1,2.4689606E-1,-5.6019228E-2,-1.9062364E-1,4.479449E-1,1.2771644E-1,2.2668254E-1,8.1850454E-2,-2.9959343E-2],"categories":[],"categories_nodes":[],"categories_segments":[],"categories_sizes":[],"default_left":[0,0,0,0,0,0,0,0,0,0,0,0,0,0,0],"id":10,"left_children":[1,3,-1,5,7,-1,-1,-1,9,-1,11,13,-1,-1,-1],"loss_changes":[1.7633934E1,6.7735395E0,0E0,1.2850628E0,1.322566E0,0E0,0E0,0E0,2.4153955E0,0E0,3.4578568E-1,1.3963774E-1,0E0,0E0,0E0],"parents":[2147483647,0,0,1,1,3,3,4,4,8,8,10,10,11,11],"right_children":[2,4,-1,6,8,-1,-1,-1,10,-1,12,14,-1,-1,-1],"split_conditions":[5.0573422E2,5E0,2.7763385E-1,5.6561505E2,5.700436E2,2.8174635E-2,-2.8978917E-1,2.4689606E-1,1.0477401E2,-1.9062364E-1,7E0,6.992025E2,2.2668254E-1,8.1850454E-2,-2.9959343E-2],"split_indices":[1,0,0,2,2,0,0,0,1,0,0,2,0,0,0],"split_type":[0,0,0,0,0,0,0,0,0,0,0,0,0,0,0],"sum_hessian":[3.669335E1,2.7655327E1,9.038025E0,2.0062637E1,7.592689E0,1.0344815E0,1.9028156E1,1.2953758E0,6.297313E0,2.8080976E0,3.4892156E0,2.4030952E0,1.0861202E0,1.345977E0,1.0571183E0],"tree_param":{"num_deleted":"0","num_feature":"3","num_nodes":"15","size_leaf_vector":"1"}},{"base_weights":[-1.9540237E-1,-7.559161E-1,5.238205E-1,-9.0842336E-1,1.039566E-1,1.8526033E-2,2.7651027E-1,-7.130421E-2,-2.8159785E-1,2.0398091E-1,-2.2137532E-1,-1.8390715E-1,1.5796974E-1,9.576911E-2,-2.143686E-2],"categories":[],"categories_nodes":[],"categories_segments":[],"categories_sizes":[],"default_left":[0,0,0,0,0,0,0,0,0,0,0,0,0,0,0],"id":11,"left_children":[1,3,5,7,-1,9,-1,-1,-1,-1,11,-1,13,-1,-1],"loss_changes":[1.2655484E1,3.2571087E0,2.7795296E0,9.428501E-2,0E0,1.2847897E0,0E0,0E0,0E0,0E0,9.8828E-1,0E0,1.6499391E-1,0E0,0E0],"parents":[2147483647,0,0,1,1,2,2,3,3,5,5,10,10,12,12],"right_children":[2,4,6,8,-1,10,-1,-1,-1,-1,12,-1,14,-1,-1],"split_conditions":[5E0,3.5348822E2,2.0954037E2,5.9089496E2,1.039566E-1,5.700436E2,2.7651027E-1,-7.130421E-2,-2.8159785E-1,2.0398091E-1,9.0489006E1,-1.8390715E-1,1.415277E2,9.576911E-2,-2.143686E-2],"split_indices":[0,1,1,2,0,2,0,0,0,0,1,0,1,0,0],"split_type":[0,0,0,0,0,0,0,0,0,0,0,0,0,0,0],"sum_hessian":[2.9410511E1,1.6500286E1,1.2910225E1,1.4649688E1,1.8505973E0,6.148456E0,6.761769E0,1.014106E0,1.3635582E1,1.148313E0,5.000143E0,2.1570878E0,2.8430552E0,1.4396868E0,1.4033685E0],"tree_param":{"num_deleted":"0","num_feature":"3","num_nodes":"15","size_leaf_vector":"1"}},{"base_weights":[-1.7195132E-1,-5.014908E-1,2.58026E-1,-8.437721E-1,1.4959095E-1,2.8692307E-2,-2.7924213E-1,4.948131E-1,-1.5442665E-1,1.7371738E-1,4.9604405E-2,-1.7042546E-1,1.3958068E-1,-5.267111E-2,1.0876899E-1],"categories":[],"categories_nodes":[],"categories_segments":[],"categories_sizes":[],"default_left":[0,0,0,0,0,0,0,0,0,0,0,0,0,0,0],"id":12,"left_children":[1,3,-1,5,7,-1,-1,9,11,-1,-1,-1,13,-1,-1],"loss_changes":[8.99789E0,4.5217586E0,0E0,1.1583271E0,8.788506E-1,0E0,0E0,1.0227025E-2,6.6641754E-1,0E0,0E0,0E0,3.183726E-1,0E0,0E0],"parents":[2147483647,0,0,1,1,3,3,4,4,7,7,8,8,12,12],"right_children":[2,4,-1,6,8,-1,-1,10,12,-1,-1,-1,14,-1,-1],"split_conditions":[5.0573422E2,5E0,2.58026E-1,5.6561505E2,6.608079E2,2.8692307E-2,-2.7924213E-1,5.966091E2,1.0477401E2,1.7371738E-1,4.9604405E-2,-1.7042546E-1,6E0,-5.267111E-2,1.0876899E-1],"split_indices":[1,0,0,2,2,0,0,2,1,0,0,0,0,0,0],"split_type":[0,0,0,0,0,0,0,0,0,0,0,0,0,0,0],"sum_hessian":[2.4188576E1,1.8723927E1,5.464649E0,1.20782795E1,6.6456466E0,1.0157616E0,1.1062517E1,2.8180623E0,3.8275845E0,1.6409093E0,1.1771529E0,1.2029134E0,2.6246712E0,1.1756713E0,1.4489998E0],"tree_param":{"num_deleted":"0","num_feature":"3","num_nodes":"15","size_leaf_vector":"1"}},{"base_weights":[-1.4937754E-1,-5.427729E-1,6.1915964E-1,-7.078768E-1,1.4079213E-1,4.5433566E-3,2.4491066E-1,-2.6678392E-1,-2.4761991E-1,5.1720306E-2,-5.1488334E-1,-1.9986065E-1,-2.4642607E-2],"categories":[],"categories_nodes":[],"categories_segments":[],"categories_sizes":[],"default_left":[0,0,0,0,0,0,0,0,0,0,0,0,0],"id":13,"left_children":[1,3,5,7,-1,-1,-1,-1,9,-1,11,-1,-1],"loss_changes":[6.7099953E0,2.7513275E0,8.9350986E-1,8.522825E-1,0E0,0E0,0E0,0E0,6.5200186E-1,0E0,1.6248935E-1,0E0,0E0],"parents":[2147483647,0,0,1,1,2,2,3,3,8,8,10,10],"right_children":[2,4,6,8,-1,-1,-1,-1,10,-1,12,-1,-1],"split_conditions":[2.0954037E2,7E0,4E0,5E0,1.4079213E-1,4.5433566E-3,2.4491066E-1,-2.6678392E-1,6.608079E2,5.1720306E-2,7.156562E2,-1.9986065E-1,-2.4642607E-2],"split_indices":[1,0,0,0,0,0,0,0,2,0,2,0,0],"split_type":[0,0,0,0,0,0,0,0,0,0,0,0,0],"sum_hessian":[2.0082075E1,1.3477191E1,6.6048846E0,1.1845386E1,1.6318047E0,1.8907284E0,4.7141566E0,7.8279767E0,4.0174093E0,1.7002702E0,2.3171391E0,1.3170924E0,1.0000467E0],"tree_param":{"num_deleted":"0","num_feature":"3","num_nodes":"13","size_leaf_vector":"1"}},{"base_weights":[-1.3276057E-1,-5.952415E-1,4.0954646E-1,8.03094E-2,-7.859477E-1,3.4833707E-2,2.3506217E-1,-2.6173502E-1,-5.306836E-2,-8.735543E-2,8.9008905E-2],"categories":[],"categories_nodes":[],"categories_segments":[],"categories_sizes":[],"default_left":[0,0,0,0,0,0,0,0,0,0,0],"id":14,"left_children":[1,3,5,-1,7,9,-1,-1,-1,-1,-1],"loss_changes":[4.7956953E0,1.889497E0,1.2264055E0,0E0,2.99304E-1,5.5724114E-1,0E0,0E0,0E0,0E0,0E0],"parents":[2147483647,0,0,1,1,2,2,4,4,5,5],"right_children":[2,4,6,-1,8,10,-1,-1,-1,-1,-1],"split_conditions":[1.3561536E2,5.8417773E2,5.0573422E2,8.03094E-2,9.0489006E1,5E0,2.3506217E-1,-2.6173502E-1,-5.306836E-2,-8.735543E-2,8.9008905E-2],"split_indices":[1,2,1,0,1,0,0,0,0,0,0],"split_type":[0,0,0,0,0,0,0,0,0,0,0],"sum_hessian":[1.7149105E1,9.203082E0,7.9460235E0,1.5926539E0,7.6104283E0,4.5152435E0,3.4307802E0,6.2852764E0,1.3251518E0,1.9613682E0,2.553875E0],"tree_param":{"num_deleted":"0","num_feature":"3","num_nodes":"11","size_leaf_vector":"1"}},{"base_weights":[-1.1298494E-1,-4.4939458E-1,5.100018E-1,2.3034243E-1,-6.507553E-1,2.092076E-1,-4.1939143E-2,-2.6408887E-1,-1.5574293E-1,8.901854E-2,-4.0642264E-1,-2.0510067E-1,2.5825249E-2],"categories":[],"categories_nodes":[],"categories_segments":[],"categories_sizes":[],"default_left":[0,0,0,0,0,0,0,0,0,0,0,0,0],"id":15,"left_children":[1,3,5,-1,7,-1,-1,-1,9,-1,11,-1,-1],"loss_changes":[3.5663843E0,3.1642113E0,8.342711E-1,0E0,9.843321E-1,0E0,0E0,0E0,6.130509E-1,0E0,4.9795818E-1,0E0,0E0],"parents":[2147483647,0,0,1,1,2,2,4,4,8,8,10,10],"right_children":[2,4,6,-1,8,-1,-1,-1,10,-1,12,-1,-1],"split_conditions":[6E0,5.4296655E2,6.992025E2,2.3034243E-1,1.3561536E2,2.092076E-1,-4.1939143E-2,-2.6408887E-1,1.5480809E2,8.901854E-2,3.5348822E2,-2.0510067E-1,2.5825249E-2],"split_indices":[0,2,2,0,1,0,0,0,1,0,1,0,0],"split_type":[0,0,0,0,0,0,0,0,0,0,0,0,0],"sum_hessian":[1.4923334E1,9.871448E0,5.051886E0,1.0019109E0,8.869536E0,3.8644547E0,1.1874315E0,5.527884E0,3.3416526E0,1.1258402E0,2.2158124E0,1.169389E0,1.0464234E0],"tree_param":{"num_deleted":"0","num_feature":"3","num_nodes":"13","size_leaf_vector":"1"}},{"base_weights":[-9.572929E-2,-3.162039E-1,2.12231E-1,2.0841353E-1,-4.774724E-1,-2.600179E-1,-2.5655963E-2,-3.4101713E-1,2.299244E-1,-2.4213914E-2,-1.2854977E-1,6.092737E-3,9.211903E-2],"categories":[],"categories_nodes":[],"categories_segments":[],"categories_sizes":[],"default_left":[0,0,0,0,0,0,0,0,0,0,0,0,0],"id":16,"left_children":[1,3,-1,-1,5,-1,7,9,11,-1,-1,-1,-1],"loss_changes":[2.7223833E0,2.2493472E0,0E0,0E0,1.8660877E0,0E0,5.619811E-1,3.574431E-2,5.70063E-2,0E0,0E0,0E0,0E0],"parents":[2147483647,0,0,1,1,4,4,6,6,7,7,8,8],"right_children":[2,4,-1,-1,6,-1,8,10,12,-1,-1,-1,-1],"split_conditions":[5.0573422E2,5.4296655E2,2.12231E-1,2.0841353E-1,5E0,-2.600179E-1,1.0477401E2,6.196658E2,6.736201E2,-2.4213914E-2,-1.2854977E-1,6.092737E-3,9.211903E-2],"split_indices":[1,2,0,0,0,0,1,2,2,0,0,0,0],"split_type":[0,0,0,0,0,0,0,0,0,0,0,0,0],"sum_hessian":[1.3110694E1,1.0762591E1,2.3481028E0,1.0256269E0,9.736964E0,4.737309E0,4.9996552E0,2.0884397E0,2.9112155E0,1.0089422E0,1.0794975E0,1.1229702E0,1.7882453E0],"tree_param":{"num_deleted":"0","num_feature":"3","num_nodes":"13","size_leaf_vector":"1"}},{"base_weights":[-7.440573E-2,-3.1046444E-1,1.8270466E-1,-5.3458506E-1,2.7274847E-1,5.478412E-3,-6.2546384E-1,1.2063229E-1,2.3888226E-3,-2.368557E-1,-4.945818E-2],"categories":[],"categories_nodes":[],"categories_segments":[],"categories_sizes":[],"default_left":[0,0,0,0,0,0,0,0,0,0,0],"id":17,"left_children":[1,3,-1,5,7,-1,9,-1,-1,-1,-1],"loss_changes":[2.2107825E0,1.44987E0,0E0,3.904972E-1,1.14344686E-1,0E0,3.6162567E-1,0E0,0E0,0E0,0E0],"parents":[2147483647,0,0,1,1,3,3,4,4,6,6],"right_children":[2,4,-1,6,8,-1,10,-1,-1,-1,-1],"split_conditions":[7E0,2.0954037E2,1.8270466E-1,5.756767E2,6.4041406E2,5.478412E-3,1.3561536E2,1.2063229E-1,2.3888226E-3,-2.368557E-1,-4.945818E-2],"split_indices":[0,1,0,2,2,0,1,0,0,0,0],"split_type":[0,0,0,0,0,0,0,0,0,0,0],"sum_hessian":[1.1531677E1,8.976759E0,2.5549178E0,6.544989E0,2.4317698E0,1.0368055E0,5.5081835E0,1.2852532E0,1.1465166E0,3.5350068E0,1.9731768E0],"tree_param":{"num_deleted":"0","num_feature":"3","num_nodes":"11","size_leaf_vector":"1"}},{"base_weights":[-6.0506992E-2,-2.425321E-1,1.8868537E-1,-5.8630353E-1,6.882121E-2,5.743015E-4,-2.2351767E-1,9.606027E-2,-1.5563473E-1,-9.247622E-2,2.530164E-2],"categories":[],"categories_nodes":[],"categories_segments":[],"categories_sizes":[],"default_left":[0,0,0,0,0,0,0,0,0,0,0],"id":18,"left_children":[1,3,-1,5,7,-1,-1,-1,9,-1,-1],"loss_changes":[1.5867547E0,1.0853107E0,0E0,4.4452E-1,3.8938776E-1,0E0,0E0,0E0,1.6708085E-1,0E0,0E0],"parents":[2147483647,0,0,1,1,3,3,4,4,8,8],"right_children":[2,4,-1,6,8,-1,-1,-1,10,-1,-1],"split_conditions":[5.0573422E2,5E0,1.8868537E-1,6.067865E2,6.608079E2,5.743015E-4,-2.2351767E-1,9.606027E-2,7.238907E2,-9.247622E-2,2.530164E-2],"split_indices":[1,0,0,2,2,0,0,0,2,0,0],"split_type":[0,0,0,0,0,0,0,0,0,0,0],"sum_hessian":[1.0428116E1,8.762849E0,1.6652678E0,3.7449229E0,5.0179257E0,1.0058827E0,2.7390401E0,2.1657863E0,2.8521395E0,1.5694566E0,1.2826829E0],"tree_param":{"num_deleted":"0","num_feature":"3","num_nodes":"11","size_leaf_vector":"1"}},{"base_weights":[-4.971792E-2,-4.473442E-1,2.493432E-1,5.458256E-2,-1.9854827E-1,2.42176E-2,1.9587232E-1,1.0958215E-1,-7.8061E-2],"categories":[],"categories_nodes":[],"categories_segments":[],"categories_sizes":[],"default_left":[0,0,0,0,0,0,0,0,0],"id":19,"left_children":[1,3,5,-1,-1,7,-1,-1,-1],"loss_changes":[1.3707765E0,7.8224915E-1,5.916184E-1,0E0,0E0,6.12101E-1,0E0,0E0,0E0],"parents":[2147483647,0,0,1,1,2,2,5,5],"right_children":[2,4,6,-1,-1,8,-1,-1,-1],"split_conditions":[1.06536545E2,5.700436E2,7E0,5.458256E-2,-1.9854827E-1,6.608079E2,1.9587232E-1,1.0958215E-1,-7.8061E-2],"split_indices":[1,2,0,0,0,2,0,0,0],"split_type":[0,0,0,0,0,0,0,0,0],"sum_hessian":[9.589402E0,3.9035215E0,5.6858807E0,1.030829E0,2.8726926E0,4.330276E0,1.3556045E0,1.8398247E0,2.4904513E0],"tree_param":{"num_deleted":"0","num_feature":"3","num_nodes":"9","size_leaf_vector":"1"}},{"base_weights":[-3.1593535E-2,1.7487903E-1,-1.8299198E-1,-1.9042689E-1,1.18148446E-1,-9.506931E-2,1.693511E-1,-2.4891047E-1,7.510738E-2,2.097894E-4,-1.10399395E-1],"categories":[],"categories_nodes":[],"categories_segments":[],"categories_sizes":[],"default_left":[0,0,0,0,0,0,0,0,0,0,0],"id":20,"left_children":[1,-1,3,-1,5,7,-1,9,-1,-1,-1],"loss_changes":[1.0239681E0,0E0,1.2547162E0,0E0,6.290959E-1,3.252356E-1,0E0,1.1691512E-1,0E0,0E0,0E0],"parents":[2147483647,0,0,2,2,4,4,5,5,7,7],"right_children":[2,-1,4,-1,6,8,-1,10,-1,-1,-1],"split_conditions":[5.4296655E2,1.7487903E-1,5E0,-1.9042689E-1,2.0954037E2,7E0,1.693511E-1,6.608079E2,7.510738E-2,2.097894E-4,-1.10399395E-1],"split_indices":[2,0,0,0,1,0,0,2,0,0,0],"split_type":[0,0,0,0,0,0,0,0,0,0,0],"sum_hessian":[8.859385E0,1.1878042E0,7.671581E0,2.6253088E0,5.0462723E0,3.947578E0,1.0986941E0,2.9245148E0,1.0230633E0,1.2657033E0,1.6588115E0],"tree_param":{"num_deleted":"0","num_feature":"3","num_nodes":"11","size_leaf_vector":"1"}},{"base_weights":[-1.2764201E-2,-3.7714076E-1,2.4685116E-1,2.778173E-2,-1.8131666E-1,6.5559804E-2,1.7022975E-1,9.2799E-2,-1.6482432E-1,-7.106061E-2,-1.1846932E-3],"categories":[],"categories_nodes":[],"categories_segments":[],"categories_sizes":[],"default_left":[0,0,0,0,0,0,0,0,0,0,0],"id":21,"left_children":[1,3,5,-1,-1,7,-1,-1,9,-1,-1],"loss_changes":[9.6018475E-1,5.0529623E-1,3.0900368E-1,0E0,0E0,3.2817757E-1,0E0,0E0,3.6036097E-2,0E0,0E0],"parents":[2147483647,0,0,1,1,2,2,5,5,8,8],"right_children":[2,4,6,-1,-1,8,-1,-1,10,-1,-1],"split_conditions":[1.06536545E2,5.8417773E2,7E0,2.778173E-2,-1.8131666E-1,6.608079E2,1.7022975E-1,9.2799E-2,7.107773E2,-7.106061E-2,-1.1846932E-3],"split_indices":[1,2,0,0,0,2,0,0,2,0,0],"split_type":[0,0,0,0,0,0,0,0,0,0,0],"sum_hessian":[8.166044E0,3.2091844E0,4.95686E0,1.2394978E0,1.9696866E0,3.9356952E0,1.021165E0,1.7457943E0,2.1899009E0,1.1862786E0,1.0036222E0],"tree_param":{"num_deleted":"0","num_feature":"3","num_nodes":"11","size_leaf_vector":"1"}},{"base_weights":[-6.8822466E-3,-1.349181E-1,1.6901553E-1,-1.24946805E-2,1.6259426E-1,-1.9073068E-1,6.55128E-2,3.725009E-2,-1.0673517E-1],"categories":[],"categories_nodes":[],"categories_segments":[],"categories_sizes":[],"default_left":[0,0,0,0,0,0,0,0,0],"id":22,"left_children":[1,-1,3,5,-1,7,-1,-1,-1],"loss_changes":[7.546597E-1,0E0,4.7810492E-1,2.7458516E-1,0E0,2.3795319E-1,0E0,0E0,0E0],"parents":[2147483647,0,0,2,2,3,3,5,5],"right_children":[2,-1,4,6,-1,8,-1,-1,-1],"split_conditions":[5.3965878E1,-1.349181E-1,7E0,2.0954037E2,1.6259426E-1,6.608079E2,6.55128E-2,3.725009E-2,-1.0673517E-1],"split_indices":[1,0,0,1,0,2,0,0,0],"split_type":[0,0,0,0,0,0,0,0,0],"sum_hessian":[7.71231E0,1.7499187E0,5.9623914E0,4.660685E0,1.3017062E0,2.728275E0,1.9324101E0,1.0234313E0,1.7048436E0],"tree_param":{"num_deleted":"0","num_feature":"3","num_nodes":"9","size_leaf_vector":"1"}},{"base_weights":[-2.827975E-3,-3.463148E-1,2.136982E-1,-1.6974516E-1,6.800102E-3,-1.967993E-2,1.0785939E-1],"categories":[],"categories_nodes":[],"categories_segments":[],"categories_sizes":[],"default_left":[0,0,0,0,0,0,0],"id":23,"left_children":[1,3,5,-1,-1,-1,-1],"loss_changes":[6.901614E-1,3.0316505E-1,2.5574228E-1,0E0,0E0,0E0,0E0],"parents":[2147483647,0,0,1,1,2,2],"right_children":[2,4,6,-1,-1,-1,-1],"split_conditions":[5E0,2.7040915E2,1.0477401E2,-1.6974516E-1,6.800102E-3,-1.967993E-2,1.0785939E-1],"split_indices":[0,1,1,0,0,0,0],"split_type":[0,0,0,0,0,0,0],"sum_hessian":[7.284556E0,2.5847764E0,4.6997795E0,1.2861857E0,1.2985907E0,1.8008958E0,2.8988836E0],"tree_param":{"num_deleted":"0","num_feature":"3","num_nodes":"7","size_leaf_vector":"1"}},{"base_weights":[-1.3441409E-2,-3.0996686E-1,1.6518638E-1,-1.5703502E-1,5.6494595E-3,3.186357E-1,-3.725366E-2,1.9684926E-2,1.2426206E-1,-5.57972E-2,4.246784E-2],"categories":[],"categories_nodes":[],"categories_segments":[],"categories_sizes":[],"default_left":[0,0,0,0,0,0,0,0,0,0,0],"id":24,"left_children":[1,3,5,-1,-1,7,9,-1,-1,-1,-1],"loss_changes":[4.791848E-1,2.4747786E-1,1.887759E-1,0E0,0E0,5.368495E-2,1.1544616E-1,0E0,0E0,0E0,0E0],"parents":[2147483647,0,0,1,1,2,2,5,5,6,6],"right_children":[2,4,6,-1,-1,8,10,-1,-1,-1,-1],"split_conditions":[5E0,2.7040915E2,6.608079E2,-1.5703502E-1,5.6494595E-3,6E0,7.238907E2,1.9684926E-2,1.2426206E-1,-5.57972E-2,4.246784E-2],"split_indices":[0,1,2,0,0,0,2,0,0,0,0],"split_type":[0,0,0,0,0,0,0,0,0,0,0],"sum_hessian":[7.080068E0,2.385247E0,4.694821E0,1.0872833E0,1.2979639E0,2.3440547E0,2.3507664E0,1.1050549E0,1.2389998E0,1.2613958E0,1.0893707E0],"tree_param":{"num_deleted":"0","num_feature":"3","num_nodes":"11","size_leaf_vector":"1"}},{"base_weights":[-1.3513951E-2,-2.723713E-1,1.5467423E-1,3.1827338E-2,-1.4992256E-1,-3.3309814E-2,2.7050304E-1,5.1139582E-2,1.4054959E-1,5.0022643E-2,-2.6082993E-2],"categories":[],"categories_nodes":[],"categories_segments":[],"categories_sizes":[],"default_left":[0,0,0,0,0,0,0,0,0,0,0],"id":25,"left_children":[1,3,5,-1,-1,-1,7,9,-1,-1,-1],"loss_changes":[3.84706E-1,3.5085964E-1,1.9645806E-1,0E0,0E0,0E0,1.5224275E-1,6.313732E-2,0E0,0E0,0E0],"parents":[2147483647,0,0,1,1,2,2,6,6,7,7],"right_children":[2,4,6,-1,-1,-1,8,10,-1,-1,-1],"split_conditions":[1.06536545E2,5.8417773E2,4E0,3.1827338E-2,-1.4992256E-1,-3.3309814E-2,2.0954037E2,1.5012321E2,1.4054959E-1,5.0022643E-2,-2.6082993E-2],"split_indices":[1,2,0,0,0,0,1,1,0,0,0],"split_type":[0,0,0,0,0,0,0,0,0,0,0],"sum_hessian":[6.8686905E0,2.4612117E0,4.407479E0,1.1238848E0,1.3373269E0,1.3506184E0,3.0568604E0,2.04711E0,1.0097504E0,1.0012858E0,1.0458244E0],"tree_param":{"num_deleted":"0","num_feature":"3","num_nodes":"11","size_leaf_vector":"1"}},{"base_weights":[-8.718332E-3,-1.258347E-1,1.0139849E-1,-1.0902284E-1,5.7713978E-2,6.6943355E-2,-3.3929303E-2],"categories":[],"categories_nodes":[],"categories_segments":[],"categories_sizes":[],"default_left":[0,0,0,0,0,0,0],"id":26,"left_children":[1,3,-1,-1,5,-1,-1],"loss_changes":[3.5151073E-1,3.0078042E-1,0E0,0E0,1.519113E-1,0E0,0E0],"parents":[2147483647,0,0,1,1,4,4],"right_children":[2,4,-1,-1,6,-1,-1],"split_conditions":[7E0,1.3561536E2,1.0139849E-1,-1.0902284E-1,6.608079E2,6.6943355E-2,-3.3929303E-2],"split_indices":[0,1,0,0,2,0,0],"split_type":[0,0,0,0,0,0,0],"sum_hessian":[6.609238E0,5.4166207E0,1.1926177E0,1.9337628E0,3.482858E0,1.6136578E0,1.8692E0],"tree_param":{"num_deleted":"0","num_feature":"3","num_nodes":"7","size_leaf_vector":"1"}},{"base_weights":[-3.3839287E-3,-2.603533E-1,1.4416951E-1,-6.401789E-4,-1.16633005E-1,2.8412408E-1,-3.661993E-2,2.0866413E-2,1.0913948E-1,-5.0463364E-2,3.590157E-2],"categories":[],"categories_nodes":[],"categories_segments":[],"categories_sizes":[],"default_left":[0,0,0,0,0,0,0,0,0,0,0],"id":27,"left_children":[1,3,5,-1,-1,7,9,-1,-1,-1,-1],"loss_changes":[3.1857497E-1,1.0064432E-1,1.4582334E-1,0E0,0E0,2.8220475E-2,8.637843E-2,0E0,0E0,0E0,0E0],"parents":[2147483647,0,0,1,1,2,2,5,5,6,6],"right_children":[2,4,6,-1,-1,8,10,-1,-1,-1,-1],"split_conditions":[5E0,6.339679E2,6.608079E2,-6.401789E-4,-1.16633005E-1,6E0,7.226312E2,2.0866413E-2,1.0913948E-1,-5.0463364E-2,3.590157E-2],"split_indices":[0,2,2,0,0,0,2,0,0,0,0],"split_type":[0,0,0,0,0,0,0,0,0,0,0],"sum_hessian":[6.412033E0,2.0600019E0,4.352031E0,1.0218985E0,1.0381032E0,2.1308792E0,2.2211523E0,1.0841528E0,1.0467263E0,1.1644608E0,1.0566915E0],"tree_param":{"num_deleted":"0","num_feature":"3","num_nodes":"11","size_leaf_vector":"1"}},{"base_weights":[-3.0848775E-3,-1.1171571E-1,9.655173E-2,-1.2340936E-1,5.1173277E-2,5.1266935E-2,-7.4698396E-2,-5.653838E-2,2.3642026E-2],"categories":[],"categories_nodes":[],"categories_segments":[],"categories_sizes":[],"default_left":[0,0,0,0,0,0,0,0,0],"id":28,"left_children":[1,3,-1,-1,5,-1,7,-1,-1],"loss_changes":[2.9364258E-1,3.243389E-1,0E0,0E0,8.6826384E-2,0E0,6.884233E-2,0E0,0E0],"parents":[2147483647,0,0,1,1,4,4,6,6],"right_children":[2,4,-1,-1,6,-1,8,-1,-1],"split_conditions":[3.5348822E2,5E0,9.655173E-2,-1.2340936E-1,6.608079E2,5.1266935E-2,7.238907E2,-5.653838E-2,2.3642026E-2],"split_indices":[1,0,0,0,2,0,2,0,0],"split_type":[0,0,0,0,0,0,0,0,0],"sum_hessian":[6.3006153E0,5.2137103E0,1.0869048E0,1.2988787E0,3.9148316E0,1.8231672E0,2.0916646E0,1.0705552E0,1.0211093E0],"tree_param":{"num_deleted":"0","num_feature":"3","num_nodes":"9","size_leaf_vector":"1"}},{"base_weights":[-3.9562946E-3,-1.4000344E-1,7.164092E-2,3.7572306E-2,-8.025842E-2,1.4820091E-2,2.3349957E-3],"categories":[],"categories_nodes":[],"categories_segments":[],"categories_sizes":[],"default_left":[0,0,0,0,0,0,0],"id":29,"left_children":[1,3,-1,5,-1,-1,-1],"loss_changes":[2.6972473E-1,1.2815648E-1,0E0,6.925394E-4,0E0,0E0,0E0],"parents":[2147483647,0,0,1,1,3,3],"right_children":[2,4,-1,6,-1,-1,-1],"split_conditions":[2.0954037E2,6.608079E2,7.164092E-2,5.554227E1,-8.025842E-2,1.4820091E-2,2.3349957E-3],"split_indices":[1,2,0,1,0,0,0],"split_type":[0,0,0,0,0,0,0],"sum_hessian":[6.154555E0,4.215429E0,1.9391264E0,2.0567765E0,2.158652E0,1.0009849E0,1.0557916E0],"tree_param":{"num_deleted":"0","num_feature":"3","num_nodes":"7","size_leaf_vector":"1"}},{"base_weights":[-1.9868042E-3,-8.935526E-2,1.0588869E-1,-4.3159395E-2,2.1222499E-1,8.804257E-2,2.1233862E-2],"categories":[],"categories_nodes":[],"categories_segments":[],"categories_sizes":[],"default_left":[0,0,0,0,0,0,0],"id":30,"left_children":[1,-1,3,-1,5,-1,-1],"loss_changes":[2.5556704E-1,0E0,1.867306E-1,0E0,3.1278983E-2,0E0,0E0],"parents":[2147483647,0,0,2,2,4,4],"right_children":[2,-1,4,-1,6,-1,-1],"split_conditions":[5.3965878E1,-8.935526E-2,4E0,-4.3159395E-2,6.608079E2,8.804257E-2,2.1233862E-2],"split_indices":[1,0,0,0,2,0,0],"split_type":[0,0,0,0,0,0,0],"sum_hessian":[6.019196E0,1.1377343E0,4.8814616E0,1.352323E0,3.5291386E0,1.5588571E0,1.9702814E0],"tree_param":{"num_deleted":"0","num_feature":"3","num_nodes":"7","size_leaf_vector":"1"}},{"base_weights":[-5.0195726E-3,-6.619962E-2,1.2742826E-1,-2.3181949E-2,2.3093936E-1,1.9040274E-2,8.375647E-2],"categories":[],"categories_nodes":[],"categories_segments":[],"categories_sizes":[],"default_left":[0,0,0,0,0,0,0],"id":31,"left_children":[1,-1,3,-1,5,-1,-1],"loss_changes":[2.2667187E-1,0E0,1.225297E-1,0E0,1.0820299E-2,0E0,0E0],"parents":[2147483647,0,0,2,2,4,4],"right_children":[2,-1,4,-1,6,-1,-1],"split_conditions":[1.06536545E2,-6.619962E-2,5E0,-2.3181949E-2,6.736201E2,1.9040274E-2,8.375647E-2],"split_indices":[1,0,0,0,2,0,0],"split_type":[0,0,0,0,0,0,0],"sum_hessian":[5.951687E0,2.0111554E0,3.9405317E0,1.4085305E0,2.5320013E0,1.084192E0,1.4478091E0],"tree_param":{"num_deleted":"0","num_feature":"3","num_nodes":"7","size_leaf_vector":"1"}},{"base_weights":[-1.8900249E-3,6.6922344E-2,-1.1420004E-1,-1.22800745E-1,6.514008E-2,5.54509E-2,-2.3626827E-2],"categories":[],"categories_nodes":[],"categories_segments":[],"categories_sizes":[],"default_left":[0,0,0,0,0,0,0],"id":32,"left_children":[1,-1,3,-1,5,-1,-1],"loss_changes":[2.00195E-1,0E0,3.0581248E-1,0E0,8.591939E-2,0E0,0E0],"parents":[2147483647,0,0,2,2,4,4],"right_children":[2,-1,4,-1,6,-1,-1],"split_conditions":[5.700436E2,6.6922344E-2,1.06536545E2,-1.22800745E-1,1.5480809E2,5.54509E-2,-2.3626827E-2],"split_indices":[2,0,1,0,1,0,0],"split_type":[0,0,0,0,0,0,0],"sum_hessian":[5.9152822E0,1.6413367E0,4.273946E0,1.1307093E0,3.1432364E0,1.5605893E0,1.5826471E0],"tree_param":{"num_deleted":"0","num_feature":"3","num_nodes":"7","size_leaf_vector":"1"}},{"base_weights":[-5.7073347E-3,-1.17200546E-1,5.814432E-2,1.628946E-2,-7.455304E-2],"categories":[],"categories_nodes":[],"categories_segments":[],"categories_sizes":[],"default_left":[0,0,0,0,0],"id":33,"left_children":[1,3,-1,-1,-1],"loss_changes":[1.7502926E-1,1.264433E-1,0E0,0E0,0E0],"parents":[2147483647,0,0,1,1],"right_children":[2,4,-1,-1,-1],"split_conditions":[2.0954037E2,6.608079E2,5.814432E-2,1.628946E-2,-7.455304E-2],"split_indices":[1,2,0,0,0],"split_type":[0,0,0,0,0],"sum_hessian":[5.847018E0,4.0156536E0,1.831364E0,1.9956691E0,2.0199847E0],"tree_param":{"num_deleted":"0","num_feature":"3","num_nodes":"5","size_leaf_vector":"1"}},{"base_weights":[-4.418475E-3,-6.52979E-2,1.1237087E-1,-1.3732851E-2,1.9370952E-1,1.3290775E-2,7.216389E-2],"categories":[],"categories_nodes":[],"categories_segments":[],"categories_sizes":[],"default_left":[0,0,0,0,0,0,0],"id":34,"left_children":[1,-1,3,-1,5,-1,-1],"loss_changes":[1.9239552E-1,0E0,7.339719E-2,0E0,1.3862297E-2,0E0,0E0],"parents":[2147483647,0,0,2,2,4,4],"right_children":[2,-1,4,-1,6,-1,-1],"split_conditions":[5E0,-6.52979E-2,1.0477401E2,-1.3732851E-2,6.736201E2,1.3290775E-2,7.216389E-2],"split_indices":[0,0,1,0,2,0,0],"split_type":[0,0,0,0,0,0,0],"sum_hessian":[5.74329E0,1.7267638E0,4.016526E0,1.5126638E0,2.5038624E0,1.0620067E0,1.4418558E0],"tree_param":{"num_deleted":"0","num_feature":"3","num_nodes":"7","size_leaf_vector":"1"}},{"base_weights":[-2.3550943E-3,-1.0480325E-1,5.4070067E-2,1.5643245E-2,-6.8459235E-2],"categories":[],"categories_nodes":[],"categories_segments":[],"categories_sizes":[],"default_left":[0,0,0,0,0],"id":35,"left_children":[1,3,-1,-1,-1],"loss_changes":[1.4466667E-1,1.0756043E-1,0E0,0E0,0E0],"parents":[2147483647,0,0,1,1],"right_children":[2,4,-1,-1,-1],"split_conditions":[2.0954037E2,6.608079E2,5.4070067E-2,1.5643245E-2,-6.8459235E-2],"split_indices":[1,2,0,0,0],"split_type":[0,0,0,0,0],"sum_hessian":[5.723965E0,3.939549E0,1.7844161E0,1.9881729E0,1.9513762E0],"tree_param":{"num_deleted":"0","num_feature":"3","num_nodes":"5","size_leaf_vector":"1"}},{"base_weights":[-1.7622047E-3,-6.021992E-2,1.0666473E-1,-1.205893E-2,1.8200696E-1,1.1912793E-2,6.7965426E-2],"categories":[],"categories_nodes":[],"categories_segments":[],"categories_sizes":[],"default_left":[0,0,0,0,0,0,0],"id":36,"left_children":[1,-1,3,-1,5,-1,-1],"loss_changes":[1.6452378E-1,0E0,6.205152E-2,0E0,1.2874313E-2,0E0,0E0],"parents":[2147483647,0,0,2,2,4,4],"right_children":[2,-1,4,-1,6,-1,-1],"split_conditions":[5E0,-6.021992E-2,1.0477401E2,-1.205893E-2,6.736201E2,1.1912793E-2,6.7965426E-2],"split_indices":[0,0,1,0,2,0,0],"split_type":[0,0,0,0,0,0,0],"sum_hessian":[5.633631E0,1.686841E0,3.9467902E0,1.4964029E0,2.4503872E0,1.0351248E0,1.4152625E0],"tree_param":{"num_deleted":"0","num_feature":"3","num_nodes":"7","size_leaf_vector":"1"}},{"base_weights":[-2.629628E-4,5.5784713E-2,-9.6658416E-2,-9.5048465E-2,4.2289447E-2,5.1999323E-2,-3.0172748E-2],"categories":[],"categories_nodes":[],"categories_segments":[],"categories_sizes":[],"default_left":[0,0,0,0,0,0,0],"id":37,"left_children":[1,-1,3,-1,5,-1,-1],"loss_changes":[1.3679995E-1,0E0,1.6696626E-1,0E0,9.1566175E-2,0E0,0E0],"parents":[2147483647,0,0,2,2,4,4],"right_children":[2,-1,4,-1,6,-1,-1],"split_conditions":[5.700436E2,5.5784713E-2,6.574443E2,-9.5048465E-2,6.992025E2,5.1999323E-2,-3.0172748E-2],"split_indices":[2,0,2,0,2,0,0],"split_type":[0,0,0,0,0,0,0],"sum_hessian":[5.6198587E0,1.6000118E0,4.019847E0,1.0600115E0,2.9598355E0,1.4325742E0,1.5272614E0],"tree_param":{"num_deleted":"0","num_feature":"3","num_nodes":"7","size_leaf_vector":"1"}},{"base_weights":[-3.0430076E-3,-1.0635704E-1,4.8447147E-2,-7.331045E-2,2.416396E-2],"categories":[],"categories_nodes":[],"categories_segments":[],"categories_sizes":[],"default_left":[0,0,0,0,0],"id":38,"left_children":[1,3,-1,-1,-1],"loss_changes":[1.2876402E-1,1.39252E-1,0E0,0E0,0E0],"parents":[2147483647,0,0,1,1],"right_children":[2,4,-1,-1,-1],"split_conditions":[6E0,6.574443E2,4.8447147E-2,-7.331045E-2,2.416396E-2],"split_indices":[0,2,0,0,0],"split_type":[0,0,0,0,0],"sum_hessian":[5.5645547E0,3.6353972E0,1.9291577E0,1.9143612E0,1.721036E0],"tree_param":{"num_deleted":"0","num_feature":"3","num_nodes":"5","size_leaf_vector":"1"}},{"base_weights":[-2.311227E-3,1.2582563E-1,-1.5093376E-1,-1.4477389E-2,6.0250383E-2,-7.7156134E-2,1.2692946E-2],"categories":[],"categories_nodes":[],"categories_segments":[],"categories_sizes":[],"default_left":[0,0,0,0,0,0,0],"id":39,"left_children":[1,3,5,-1,-1,-1,-1],"loss_changes":[1.4391E-1,6.2809296E-2,8.2573935E-2,0E0,0E0,0E0,0E0],"parents":[2147483647,0,0,1,1,2,2],"right_children":[2,4,6,-1,-1,-1,-1],"split_conditions":[6.608079E2,4E0,7.238907E2,-1.4477389E-2,6.0250383E-2,-7.7156134E-2,1.2692946E-2],"split_indices":[2,0,2,0,0,0,0],"split_type":[0,0,0,0,0,0,0],"sum_hessian":[5.559467E0,3.0678594E0,2.4916072E0,1.0312151E0,2.0366445E0,1.3941498E0,1.0974575E0],"tree_param":{"num_deleted":"0","num_feature":"3","num_nodes":"7","size_leaf_vector":"1"}},{"base_weights":[-4.6683275E-3,-1.1376424E-1,5.6971814E-2,2.0970285E-2,-1.815527E-1,-8.1992865E-2,8.2400255E-3],"categories":[],"categories_nodes":[],"categories_segments":[],"categories_sizes":[],"default_left":[0,0,0,0,0,0,0],"id":40,"left_children":[1,3,-1,-1,5,-1,-1],"loss_changes":[1.6006011E-1,7.251021E-2,0E0,0E0,8.014448E-2,0E0,0E0],"parents":[2147483647,0,0,1,1,4,4],"right_children":[2,4,-1,-1,6,-1,-1],"split_conditions":[2.0954037E2,5.966091E2,5.6971814E-2,2.0970285E-2,7.238907E2,-8.1992865E-2,8.2400255E-3],"split_indices":[1,2,0,0,2,0,0],"split_type":[0,0,0,0,0,0,0],"sum_hessian":[5.522534E0,3.8046322E0,1.7179017E0,1.0172756E0,2.7873564E0,1.7232796E0,1.0640769E0],"tree_param":{"num_deleted":"0","num_feature":"3","num_nodes":"7","size_leaf_vector":"1"}},{"base_weights":[-2.9845692E-3,5.8223553E-2,-7.701557E-2,-9.276234E-2,6.283205E-2,4.6682917E-2,-1.9578308E-2],"categories":[],"categories_nodes":[],"categories_segments":[],"categories_sizes":[],"default_left":[0,0,0,0,0,0,0],"id":41,"left_children":[1,-1,3,-1,5,-1,-1],"loss_changes":[1.0881079E-1,0E0,1.9454297E-1,0E0,6.0031205E-2,0E0,0E0],"parents":[2147483647,0,0,2,2,4,4],"right_children":[2,-1,4,-1,6,-1,-1],"split_conditions":[5.5163043E2,5.8223553E-2,9.0489006E1,-9.276234E-2,1.5480809E2,4.6682917E-2,-1.9578308E-2],"split_indices":[2,0,1,0,1,0,0],"split_type":[0,0,0,0,0,0,0],"sum_hessian":[5.4339676E0,1.0410945E0,4.392873E0,1.196035E0,3.196838E0,1.7294103E0,1.4674275E0],"tree_param":{"num_deleted":"0","num_feature":"3","num_nodes":"7","size_leaf_vector":"1"}},{"base_weights":[-3.6653364E-3,-4.9312476E-2,8.424172E-2,5.488089E-2,-1.2054184E-2],"categories":[],"categories_nodes":[],"categories_segments":[],"categories_sizes":[],"default_left":[0,0,0,0,0],"id":42,"left_children":[1,-1,3,-1,-1],"loss_changes":[1.0425489E-1,0E0,6.626696E-2,0E0,0E0],"parents":[2147483647,0,0,2,2],"right_children":[2,-1,4,-1,-1],"split_conditions":[5E0,-4.9312476E-2,6.608079E2,5.488089E-2,-1.2054184E-2],"split_indices":[0,0,2,0,0],"split_type":[0,0,0,0,0],"sum_hessian":[5.3994064E0,1.6015744E0,3.797832E0,1.8556243E0,1.9422077E0],"tree_param":{"num_deleted":"0","num_feature":"3","num_nodes":"5","size_leaf_vector":"1"}},{"base_weights":[-3.6408918E-3,-1.016561E-1,5.072043E-2,8.248667E-3,-5.8958817E-2],"categories":[],"categories_nodes":[],"categories_segments":[],"categories_sizes":[],"default_left":[0,0,0,0,0],"id":43,"left_children":[1,3,-1,-1,-1],"loss_changes":[1.2508702E-1,6.288057E-2,0E0,0E0,0E0],"parents":[2147483647,0,0,1,1],"right_children":[2,4,-1,-1,-1],"split_conditions":[2.0954037E2,6.608079E2,5.072043E-2,8.248667E-3,-5.8958817E-2],"split_indices":[1,2,0,0,0],"split_type":[0,0,0,0,0],"sum_hessian":[5.374027E0,3.690825E0,1.6832019E0,1.8638033E0,1.8270217E0],"tree_param":{"num_deleted":"0","num_feature":"3","num_nodes":"5","size_leaf_vector":"1"}},{"base_weights":[-2.750551E-3,-4.708984E-2,8.196463E-2,-1.89448E-2,4.8279848E-2],"categories":[],"categories_nodes":[],"categories_segments":[],"categories_sizes":[],"default_left":[0,0,0,0,0],"id":44,"left_children":[1,-1,3,-1,-1],"loss_changes":[9.5170416E-2,0E0,6.428755E-2,0E0,0E0],"parents":[2147483647,0,0,2,2],"right_children":[2,-1,4,-1,-1],"split_conditions":[5E0,-4.708984E-2,1.0477401E2,-1.89448E-2,4.8279848E-2],"split_indices":[0,0,1,0,0],"split_type":[0,0,0,0,0],"sum_hessian":[5.2999253E0,1.5767461E0,3.723179E0,1.3826697E0,2.3405094E0],"tree_param":{"num_deleted":"0","num_feature":"3","num_nodes":"5","size_leaf_vector":"1"}},{"base_weights":[-4.858353E-3,-9.424808E-2,4.6245225E-2,7.4995984E-3,-5.481905E-2],"categories":[],"categories_nodes":[],"categories_segments":[],"categories_sizes":[],"default_left":[0,0,0,0,0],"id":45,"left_children":[1,3,-1,-1,-1],"loss_changes":[1.04062356E-1,5.3661242E-2,0E0,0E0,0E0],"parents":[2147483647,0,0,1,1],"right_children":[2,4,-1,-1,-1],"split_conditions":[2.0954037E2,6.608079E2,4.6245225E-2,7.4995984E-3,-5.481905E-2],"split_indices":[1,2,0,0,0],"split_type":[0,0,0,0,0],"sum_hessian":[5.299095E0,3.6528568E0,1.6462384E0,1.8615414E0,1.7913154E0],"tree_param":{"num_deleted":"0","num_feature":"3","num_nodes":"5","size_leaf_vector":"1"}},{"base_weights":[-3.7613695E-3,-9.132666E-2,4.13791E-2,-7.422974E-2,3.4278523E-2],"categories":[],"categories_nodes":[],"categories_segments":[],"categories_sizes":[],"default_left":[0,0,0,0,0],"id":46,"left_children":[1,3,-1,-1,-1],"loss_changes":[8.993588E-2,1.7122182E-1,0E0,0E0,0E0],"parents":[2147483647,0,0,1,1],"right_children":[2,4,-1,-1,-1],"split_conditions":[6E0,6.574443E2,4.13791E-2,-7.422974E-2,3.4278523E-2],"split_indices":[0,2,0,0,0],"split_type":[0,0,0,0,0],"sum_hessian":[5.2333713E0,3.45416E0,1.7792113E0,1.8476691E0,1.6064909E0],"tree_param":{"num_deleted":"0","num_feature":"3","num_nodes":"5","size_leaf_vector":"1"}},{"base_weights":[-2.5227012E-3,5.7255346E-2,-7.633757E-2,-7.701278E-2,4.7286954E-2,4.470429E-2,-2.3890184E-2],"categories":[],"categories_nodes":[],"categories_segments":[],"categories_sizes":[],"default_left":[0,0,0,0,0,0,0],"id":47,"left_children":[1,-1,3,-1,5,-1,-1],"loss_changes":[1.0364231E-1,0E0,1.287732E-1,0E0,6.283998E-2,0E0,0E0],"parents":[2147483647,0,0,2,2,4,4],"right_children":[2,-1,4,-1,6,-1,-1],"split_conditions":[5.5163043E2,5.7255346E-2,1.06536545E2,-7.701278E-2,1.5480809E2,4.470429E-2,-2.3890184E-2],"split_indices":[2,0,1,0,1,0,0],"split_type":[0,0,0,0,0,0,0],"sum_hessian":[5.240299E0,1.0096823E0,4.230617E0,1.2826585E0,2.9479587E0,1.5397633E0,1.4081954E0],"tree_param":{"num_deleted":"0","num_feature":"3","num_nodes":"7","size_leaf_vector":"1"}},{"base_weights":[-1.8641128E-3,4.2444658E-2,-8.900458E-2,-1.370542E-1,9.988362E-3,-4.2835678E-4,-6.1689973E-2],"categories":[],"categories_nodes":[],"categories_segments":[],"categories_sizes":[],"default_left":[0,0,0,0,0,0,0],"id":48,"left_children":[1,-1,3,5,-1,-1,-1],"loss_changes":[9.023878E-2,0E0,3.0888211E-2,3.143838E-2,0E0,0E0,0E0],"parents":[2147483647,0,0,2,2,3,3],"right_children":[2,-1,4,6,-1,-1,-1],"split_conditions":[5.966091E2,4.2444658E-2,7.238907E2,6.608079E2,9.988362E-3,-4.2835678E-4,-6.1689973E-2],"split_indices":[2,0,2,2,0,0,0],"split_type":[0,0,0,0,0,0,0],"sum_hessian":[5.2160406E0,1.7362667E0,3.4797738E0,2.4116306E0,1.0681434E0,1.1527326E0,1.2588979E0],"tree_param":{"num_deleted":"0","num_feature":"3","num_nodes":"7","size_leaf_vector":"1"}},{"base_weights":[-2.9451922E-3,-8.235197E-2,4.0990695E-2,1.0649272E-2,-5.177379E-2],"categories":[],"categories_nodes":[],"categories_segments":[],"categories_sizes":[],"default_left":[0,0,0,0,0],"id":49,"left_children":[1,3,-1,-1,-1],"loss_changes":[7.9829656E-2,5.469506E-2,0E0,0E0,0E0],"parents":[2147483647,0,0,1,1],"right_children":[2,4,-1,-1,-1],"split_conditions":[2.0954037E2,6.608079E2,4.0990695E-2,1.0649272E-2,-5.177379E-2],"split_indices":[1,2,0,0,0],"split_type":[0,0,0,0,0],"sum_hessian":[5.187254E0,3.5676453E0,1.6196085E0,1.8100468E0,1.7575985E0],"tree_param":{"num_deleted":"0","num_feature":"3","num_nodes":"5","size_leaf_vector":"1"}},{"base_weights":[-2.239753E-3,-4.6759047E-2,8.253941E-2,-1.3184949E-2,1.5934917E-1,6.1296E-2,1.1710878E-2],"categories":[],"categories_nodes":[],"categories_segments":[],"categories_sizes":[],"default_left":[0,0,0,0,0,0,0],"id":50,"left_children":[1,-1,3,-1,5,-1,-1],"loss_changes":[9.269306E-2,0E0,5.172824E-2,0E0,8.690529E-3,0E0,0E0],"parents":[2147483647,0,0,2,2,4,4],"right_children":[2,-1,4,-1,6,-1,-1],"split_conditions":[5E0,-4.6759047E-2,6.5843396E2,-1.3184949E-2,7.122227E2,6.1296E-2,1.1710878E-2],"split_indices":[0,0,2,0,2,0,0],"split_type":[0,0,0,0,0,0,0],"sum_hessian":[5.129271E0,1.5258665E0,3.6034045E0,1.52306E0,2.0803444E0,1.006059E0,1.0742854E0],"tree_param":{"num_deleted":"0","num_feature":"3","num_nodes":"7","size_leaf_vector":"1"}},{"base_weights":[4.981808E-4,-8.0351524E-2,3.9165497E-2,-6.6540755E-2,3.0920101E-2],"categories":[],"categories_nodes":[],"categories_segments":[],"categories_sizes":[],"default_left":[0,0,0,0,0],"id":51,"left_children":[1,3,-1,-1,-1],"loss_changes":[7.493018E-2,1.3696986E-1,0E0,0E0,0E0],"parents":[2147483647,0,0,1,1],"right_children":[2,4,-1,-1,-1],"split_conditions":[6E0,6.574443E2,3.9165497E-2,-6.6540755E-2,3.0920101E-2],"split_indices":[0,2,0,0,0],"split_type":[0,0,0,0,0],"sum_hessian":[5.128529E0,3.3981705E0,1.7303586E0,1.8004259E0,1.5977446E0],"tree_param":{"num_deleted":"0","num_feature":"3","num_nodes":"5","size_leaf_vector":"1"}},{"base_weights":[8.436214E-4,4.3422773E-2,-8.7526225E-2,-1.345936E-1,9.457858E-3,-1.1696939E-3,-5.995301E-2],"categories":[],"categories_nodes":[],"categories_segments":[],"categories_sizes":[],"default_left":[0,0,0,0,0,0,0],"id":52,"left_children":[1,-1,3,5,-1,-1,-1],"loss_changes":[9.06839E-2,0E0,2.9033296E-2,2.787713E-2,0E0,0E0,0E0],"parents":[2147483647,0,0,2,2,3,3],"right_children":[2,-1,4,6,-1,-1,-1],"split_conditions":[5.966091E2,4.3422773E-2,7.238907E2,6.608079E2,9.457858E-3,-1.1696939E-3,-5.995301E-2],"split_indices":[2,0,2,2,0,0,0],"split_type":[0,0,0,0,0,0,0],"sum_hessian":[5.135036E0,1.7109901E0,3.424046E0,2.3603435E0,1.0637025E0,1.1388975E0,1.2214458E0],"tree_param":{"num_deleted":"0","num_feature":"3","num_nodes":"7","size_leaf_vector":"1"}},{"base_weights":[-8.133863E-4,-8.386249E-2,4.3206908E-2,8.055193E-3,-4.9674854E-2],"categories":[],"categories_nodes":[],"categories_segments":[],"categories_sizes":[],"default_left":[0,0,0,0,0],"id":53,"left_children":[1,3,-1,-1,-1],"loss_changes":[8.554016E-2,4.5282893E-2,0E0,0E0,0E0],"parents":[2147483647,0,0,1,1],"right_children":[2,4,-1,-1,-1],"split_conditions":[2.0954037E2,6.608079E2,4.3206908E-2,8.055193E-3,-4.9674854E-2],"split_indices":[1,2,0,0,0],"split_type":[0,0,0,0,0],"sum_hessian":[5.1073146E0,3.513602E0,1.5937124E0,1.7772504E0,1.7363515E0],"tree_param":{"num_deleted":"0","num_feature":"3","num_nodes":"5","size_leaf_vector":"1"}},{"base_weights":[-4.2611946E-4,-3.9505675E-2,7.188898E-2,-1.519394E-2,4.45048E-2],"categories":[],"categories_nodes":[],"categories_segments":[],"categories_sizes":[],"default_left":[0,0,0,0,0],"id":54,"left_children":[1,-1,3,-1,-1],"loss_changes":[6.689893E-2,0E0,5.0125062E-2,0E0,0E0],"parents":[2147483647,0,0,2,2],"right_children":[2,-1,4,-1,-1],"split_conditions":[5E0,-3.9505675E-2,6.5843396E2,-1.519394E-2,4.45048E-2],"split_indices":[0,0,2,0,0],"split_type":[0,0,0,0,0],"sum_hessian":[5.050562E0,1.502454E0,3.548108E0,1.4930139E0,2.0550942E0],"tree_param":{"num_deleted":"0","num_feature":"3","num_nodes":"5","size_leaf_vector":"1"}},{"base_weights":[-2.083364E-3,-7.977748E-2,4.0317714E-2,1.5523771E-2,-5.7731796E-2,-3.4237567E-2,4.616389E-2],"categories":[],"categories_nodes":[],"categories_segments":[],"categories_sizes":[],"default_left":[0,0,0,0,0,0,0],"id":55,"left_children":[1,3,-1,5,-1,-1,-1],"loss_changes":[7.504464E-2,5.122938E-2,0E0,7.78226E-2,0E0,0E0,0E0],"parents":[2147483647,0,0,1,1,3,3],"right_children":[2,4,-1,6,-1,-1,-1],"split_conditions":[2.0954037E2,1.415277E2,4.0317714E-2,9.0489006E1,-5.7731796E-2,-3.4237567E-2,4.616389E-2],"split_indices":[1,1,0,1,0,0,0],"split_type":[0,0,0,0,0,0,0],"sum_hessian":[5.0662985E0,3.493139E0,1.5731595E0,2.3594646E0,1.1336746E0,1.3084704E0,1.0509942E0],"tree_param":{"num_deleted":"0","num_feature":"3","num_nodes":"7","size_leaf_vector":"1"}},{"base_weights":[-2.5362635E-3,3.6238287E-2,-7.824064E-2,-4.417546E-2,3.7663393E-3],"categories":[],"categories_nodes":[],"categories_segments":[],"categories_sizes":[],"default_left":[0,0,0,0,0],"id":56,"left_children":[1,-1,3,-1,-1],"loss_changes":[6.57224E-2,0E0,2.9051488E-2,0E0,0E0],"parents":[2147483647,0,0,2,2],"right_children":[2,-1,4,-1,-1],"split_conditions":[5.966091E2,3.6238287E-2,6.766195E2,-4.417546E-2,3.7663393E-3],"split_indices":[2,0,2,0,0],"split_type":[0,0,0,0,0],"sum_hessian":[5.0269265E0,1.6854852E0,3.3414412E0,1.5451865E0,1.7962546E0],"tree_param":{"num_deleted":"0","num_feature":"3","num_nodes":"5","size_leaf_vector":"1"}},{"base_weights":[-2.5261054E-3,-4.231284E-2,6.5828845E-2,4.8508737E-2,-1.5468458E-2],"categories":[],"categories_nodes":[],"categories_segments":[],"categories_sizes":[],"default_left":[0,0,0,0,0],"id":57,"left_children":[1,-1,3,-1,-1],"loss_changes":[6.607474E-2,0E0,6.120631E-2,0E0,0E0],"parents":[2147483647,0,0,2,2],"right_children":[2,-1,4,-1,-1],"split_conditions":[4E0,-4.231284E-2,6.608079E2,4.8508737E-2,-1.5468458E-2],"split_indices":[0,0,2,0,0],"split_type":[0,0,0,0,0],"sum_hessian":[4.9979134E0,1.300054E0,3.6978595E0,1.8277812E0,1.8700784E0],"tree_param":{"num_deleted":"0","num_feature":"3","num_nodes":"5","size_leaf_vector":"1"}},{"base_weights":[-3.3446327E-3,-7.482348E-2,3.670526E-2,-4.82622E-2,7.1829204E-3],"categories":[],"categories_nodes":[],"categories_segments":[],"categories_sizes":[],"default_left":[0,0,0,0,0],"id":58,"left_children":[1,3,-1,-1,-1],"loss_changes":[6.286427E-2,4.1513793E-2,0E0,0E0,0E0],"parents":[2147483647,0,0,1,1],"right_children":[2,4,-1,-1,-1],"split_conditions":[2.0954037E2,6.6005743E2,3.670526E-2,-4.82622E-2,7.1829204E-3],"split_indices":[1,2,0,0,0],"split_type":[0,0,0,0,0],"sum_hessian":[4.9779778E0,3.4313867E0,1.5465913E0,1.4976904E0,1.9336963E0],"tree_param":{"num_deleted":"0","num_feature":"3","num_nodes":"5","size_leaf_vector":"1"}},{"base_weights":[-3.090692E-3,-3.8467072E-2,6.6095695E-2,4.1873485E-2,-8.736785E-3],"categories":[],"categories_nodes":[],"categories_segments":[],"categories_sizes":[],"default_left":[0,0,0,0,0],"id":59,"left_children":[1,-1,3,-1,-1],"loss_changes":[6.0063742E-2,0E0,3.5530545E-2,0E0,0E0],"parents":[2147483647,0,0,2,2],"right_children":[2,-1,4,-1,-1],"split_conditions":[5E0,-3.8467072E-2,6.608079E2,4.1873485E-2,-8.736785E-3],"split_indices":[0,0,2,0,0],"split_type":[0,0,0,0,0],"sum_hessian":[4.9588523E0,1.4617589E0,3.4970937E0,1.7108824E0,1.7862113E0],"tree_param":{"num_deleted":"0","num_feature":"3","num_nodes":"5","size_leaf_vector":"1"}},{"base_weights":[-3.085897E-3,-7.197766E-2,3.5451714E-2,-4.6032622E-2,6.5225284E-3],"categories":[],"categories_nodes":[],"categories_segments":[],"categories_sizes":[],"default_left":[0,0,0,0,0],"id":60,"left_children":[1,3,-1,-1,-1],"loss_changes":[5.8186032E-2,3.7035502E-2,0E0,0E0,0E0],"parents":[2147483647,0,0,1,1],"right_children":[2,4,-1,-1,-1],"split_conditions":[2.0954037E2,6.6005743E2,3.5451714E-2,-4.6032622E-2,6.5225284E-3],"split_indices":[1,2,0,0,0],"split_type":[0,0,0,0,0],"sum_hessian":[4.9470997E0,3.413922E0,1.5331776E0,1.4854574E0,1.9284645E0],"tree_param":{"num_deleted":"0","num_feature":"3","num_nodes":"5","size_leaf_vector":"1"}},{"base_weights":[-2.8532988E-3,-3.648252E-2,6.2649906E-2,4.0397607E-2,-8.958128E-3],"categories":[],"categories_nodes":[],"categories_segments":[],"categories_sizes":[],"default_left":[0,0,0,0,0],"id":61,"left_children":[1,-1,3,-1,-1],"loss_changes":[5.374191E-2,0E0,3.3874396E-2,0E0,0E0],"parents":[2147483647,0,0,2,2],"right_children":[2,-1,4,-1,-1],"split_conditions":[5E0,-3.648252E-2,6.608079E2,4.0397607E-2,-8.958128E-3],"split_indices":[0,0,2,0,0],"split_type":[0,0,0,0,0],"sum_hessian":[4.929311E0,1.4478612E0,3.4814496E0,1.7014539E0,1.7799957E0],"tree_param":{"num_deleted":"0","num_feature":"3","num_nodes":"5","size_leaf_vector":"1"}},{"base_weights":[-2.8713322E-3,-6.926682E-2,3.4224324E-2,1.3007774E-2,-4.9962986E-2,-3.340749E-2,4.319484E-2],"categories":[],"categories_nodes":[],"categories_segments":[],"categories_sizes":[],"default_left":[0,0,0,0,0,0,0],"id":62,"left_children":[1,3,-1,5,-1,-1,-1],"loss_changes":[5.3858615E-2,3.7360042E-2,0E0,6.994869E-2,0E0,0E0,0E0],"parents":[2147483647,0,0,1,1,3,3],"right_children":[2,4,-1,6,-1,-1,-1],"split_conditions":[2.0954037E2,1.415277E2,3.4224324E-2,9.0489006E1,-4.9962986E-2,-3.340749E-2,4.319484E-2],"split_indices":[1,1,0,1,0,0,0],"split_type":[0,0,0,0,0,0,0],"sum_hessian":[4.918341E0,3.3973522E0,1.5209888E0,2.309934E0,1.0874184E0,1.2616863E0,1.0482475E0],"tree_param":{"num_deleted":"0","num_feature":"3","num_nodes":"7","size_leaf_vector":"1"}},{"base_weights":[-3.1561798E-3,3.3755675E-2,-6.479354E-2,-6.934839E-2,5.236128E-2,5.0258283E-2,-2.1494092E-2],"categories":[],"categories_nodes":[],"categories_segments":[],"categories_sizes":[],"default_left":[0,0,0,0,0,0,0],"id":63,"left_children":[1,-1,3,-1,5,-1,-1],"loss_changes":[4.927198E-2,0E0,9.934165E-2,0E0,6.1155643E-2,0E0,0E0],"parents":[2147483647,0,0,2,2,4,4],"right_children":[2,-1,4,-1,6,-1,-1],"split_conditions":[5.700436E2,3.3755675E-2,6.5843396E2,-6.934839E-2,6.992025E2,5.0258283E-2,-2.1494092E-2],"split_indices":[2,0,2,0,2,0,0],"split_type":[0,0,0,0,0,0,0],"sum_hessian":[4.8880825E0,1.4122356E0,3.4758468E0,1.0341531E0,2.4416938E0,1.0840234E0,1.3576703E0],"tree_param":{"num_deleted":"0","num_feature":"3","num_nodes":"7","size_leaf_vector":"1"}},{"base_weights":[-3.4886685E-3,-3.848254E-2,5.8598515E-2,4.4361584E-2,-1.4976832E-2],"categories":[],"categories_nodes":[],"categories_segments":[],"categories_sizes":[],"default_left":[0,0,0,0,0],"id":64,"left_children":[1,-1,3,-1,-1],"loss_changes":[5.287392E-2,0E0,5.1905643E-2,0E0,0E0],"parents":[2147483647,0,0,2,2],"right_children":[2,-1,4,-1,-1],"split_conditions":[4E0,-3.848254E-2,6.608079E2,4.4361584E-2,-1.4976832E-2],"split_indices":[0,0,2,0,0],"split_type":[0,0,0,0,0],"sum_hessian":[4.854324E0,1.2586222E0,3.5957015E0,1.7738568E0,1.8218447E0],"tree_param":{"num_deleted":"0","num_feature":"3","num_nodes":"5","size_leaf_vector":"1"}},{"base_weights":[-4.018546E-3,-6.4633444E-2,3.08221E-2,-4.5971006E-2,6.777515E-3],"categories":[],"categories_nodes":[],"categories_segments":[],"categories_sizes":[],"default_left":[0,0,0,0,0],"id":65,"left_children":[1,3,-1,-1,-1],"loss_changes":[4.441298E-2,3.6979906E-2,0E0,0E0,0E0],"parents":[2147483647,0,0,1,1],"right_children":[2,4,-1,-1,-1],"split_conditions":[2.0954037E2,6.574443E2,3.08221E-2,-4.5971006E-2,6.777515E-3],"split_indices":[1,2,0,0,0],"split_type":[0,0,0,0,0],"sum_hessian":[4.8370395E0,3.3369765E0,1.500063E0,1.2799796E0,2.0569968E0],"tree_param":{"num_deleted":"0","num_feature":"3","num_nodes":"5","size_leaf_vector":"1"}},{"base_weights":[-4.267265E-3,-3.5040434E-2,5.8502592E-2,-1.2415833E-2,3.590607E-2],"categories":[],"categories_nodes":[],"categories_segments":[],"categories_sizes":[],"default_left":[0,0,0,0,0],"id":66,"left_children":[1,-1,3,-1,-1],"loss_changes":[4.796405E-2,0E0,3.1869885E-2,0E0,0E0],"parents":[2147483647,0,0,2,2],"right_children":[2,-1,4,-1,-1],"split_conditions":[5E0,-3.5040434E-2,6.5843396E2,-1.2415833E-2,3.590607E-2],"split_indices":[0,0,2,0,0],"split_type":[0,0,0,0,0],"sum_hessian":[4.8228045E0,1.4186504E0,3.404154E0,1.4159974E0,1.9881566E0],"tree_param":{"num_deleted":"0","num_feature":"3","num_nodes":"5","size_leaf_vector":"1"}},{"base_weights":[-5.0274893E-3,8.5116655E-2,-1.0860254E-1,4.6951655E-2,-1.0470226E-2,9.989808E-3,-5.9179224E-2],"categories":[],"categories_nodes":[],"categories_segments":[],"categories_sizes":[],"default_left":[0,0,0,0,0,0,0],"id":67,"left_children":[1,3,5,-1,-1,-1,-1],"loss_changes":[6.374133E-2,3.7004203E-2,4.6268836E-2,0E0,0E0,0E0,0E0],"parents":[2147483647,0,0,1,1,2,2],"right_children":[2,4,6,-1,-1,-1,-1],"split_conditions":[6.608079E2,1.670242E2,1.415277E2,4.6951655E-2,-1.0470226E-2,9.989808E-3,-5.9179224E-2],"split_indices":[2,1,1,0,0,0,0],"split_type":[0,0,0,0,0,0,0],"sum_hessian":[4.8369155E0,2.681418E0,2.1554973E0,1.4906969E0,1.1907212E0,1.0689982E0,1.0864992E0],"tree_param":{"num_deleted":"0","num_feature":"3","num_nodes":"7","size_leaf_vector":"1"}},{"base_weights":[-5.8006155E-3,-7.404734E-2,3.454195E-2,7.919942E-3,-4.4286422E-2],"categories":[],"categories_nodes":[],"categories_segments":[],"categories_sizes":[],"default_left":[0,0,0,0,0],"id":68,"left_children":[1,3,-1,-1,-1],"loss_changes":[5.6649037E-2,3.5939995E-2,0E0,0E0,0E0],"parents":[2147483647,0,0,1,1],"right_children":[2,4,-1,-1,-1],"split_conditions":[2.0954037E2,6.608079E2,3.454195E-2,7.919942E-3,-4.4286422E-2],"split_indices":[1,2,0,0,0],"split_type":[0,0,0,0,0],"sum_hessian":[4.830442E0,3.3357913E0,1.4946507E0,1.6814157E0,1.6543757E0],"tree_param":{"num_deleted":"0","num_feature":"3","num_nodes":"5","size_leaf_vector":"1"}},{"base_weights":[-4.5013283E-3,-3.3855822E-2,5.610614E-2,-2.0911166E-2,1.24806456E-1,4.9715385E-2,8.567333E-3],"categories":[],"categories_nodes":[],"categories_segments":[],"categories_sizes":[],"default_left":[0,0,0,0,0,0,0],"id":69,"left_children":[1,-1,3,-1,5,-1,-1],"loss_changes":[4.4323027E-2,0E0,4.6538994E-2,0E0,7.828794E-3,0E0,0E0],"parents":[2147483647,0,0,2,2,4,4],"right_children":[2,-1,4,-1,6,-1,-1],"split_conditions":[1.06536545E2,-3.3855822E-2,6.539155E2,-2.0911166E-2,6.992025E2,4.9715385E-2,8.567333E-3],"split_indices":[1,0,2,0,2,0,0],"split_type":[0,0,0,0,0,0,0],"sum_hessian":[4.7852674E0,1.4073111E0,3.3779564E0,1.1879219E0,2.1900344E0,1.0303184E0,1.159716E0],"tree_param":{"num_deleted":"0","num_feature":"3","num_nodes":"7","size_leaf_vector":"1"}},{"base_weights":[-2.5676438E-3,3.0347222E-2,-6.752707E-2,-4.5533042E-2,1.0380216E-2],"categories":[],"categories_nodes":[],"categories_segments":[],"categories_sizes":[],"default_left":[0,0,0,0,0],"id":70,"left_children":[1,-1,3,-1,-1],"loss_changes":[4.5794275E-2,0E0,4.100654E-2,0E0,0E0],"parents":[2147483647,0,0,2,2],"right_children":[2,-1,4,-1,-1],"split_conditions":[5.966091E2,3.0347222E-2,6.766195E2,-4.5533042E-2,1.0380216E-2],"split_indices":[2,0,2,0,0],"split_type":[0,0,0,0,0],"sum_hessian":[4.7827067E0,1.627203E0,3.1555035E0,1.4627064E0,1.6927972E0],"tree_param":{"num_deleted":"0","num_feature":"3","num_nodes":"5","size_leaf_vector":"1"}},{"base_weights":[-2.6934748E-3,7.065066E-2,-8.833141E-2,-1.34609165E-2,4.289707E-2,1.3965634E-2,-5.4009214E-2],"categories":[],"categories_nodes":[],"categories_segments":[],"categories_sizes":[],"default_left":[0,0,0,0,0,0,0],"id":71,"left_children":[1,3,5,-1,-1,-1,-1],"loss_changes":[4.242058E-2,3.6988124E-2,4.6745762E-2,0E0,0E0,0E0,0E0],"parents":[2147483647,0,0,1,1,2,2],"right_children":[2,4,6,-1,-1,-1,-1],"split_conditions":[6.608079E2,5.6561505E2,1.415277E2,-1.34609165E-2,4.289707E-2,1.3965634E-2,-5.4009214E-2],"split_indices":[2,2,1,0,0,0,0],"split_type":[0,0,0,0,0,0,0],"sum_hessian":[4.7601786E0,2.6584074E0,2.101771E0,1.1699029E0,1.4885046E0,1.0498507E0,1.0519203E0],"tree_param":{"num_deleted":"0","num_feature":"3","num_nodes":"7","size_leaf_vector":"1"}},{"base_weights":[-3.8038038E-3,-3.2842293E-2,5.513998E-2,-1.9717436E-2,1.2087922E-1,4.841909E-2,8.040868E-3],"categories":[],"categories_nodes":[],"categories_segments":[],"categories_sizes":[],"default_left":[0,0,0,0,0,0,0],"id":72,"left_children":[1,-1,3,-1,5,-1,-1],"loss_changes":[4.18902E-2,0E0,4.2588692E-2,0E0,7.781487E-3,0E0,0E0],"parents":[2147483647,0,0,2,2,4,4],"right_children":[2,-1,4,-1,6,-1,-1],"split_conditions":[1.06536545E2,-3.2842293E-2,6.539155E2,-1.9717436E-2,6.992025E2,4.841909E-2,8.040868E-3],"split_indices":[1,0,2,0,2,0,0],"split_type":[0,0,0,0,0,0,0],"sum_hessian":[4.756298E0,1.3961344E0,3.3601637E0,1.1838387E0,2.1763248E0,1.020996E0,1.155329E0],"tree_param":{"num_deleted":"0","num_feature":"3","num_nodes":"7","size_leaf_vector":"1"}},{"base_weights":[-2.007132E-3,2.9335473E-2,-6.4861335E-2,-4.3510593E-2,9.722105E-3],"categories":[],"categories_nodes":[],"categories_segments":[],"categories_sizes":[],"default_left":[0,0,0,0,0],"id":73,"left_children":[1,-1,3,-1,-1],"loss_changes":[4.2430487E-2,0E0,3.6917612E-2,0E0,0E0],"parents":[2147483647,0,0,2,2],"right_children":[2,-1,4,-1,-1],"split_conditions":[5.966091E2,2.9335473E-2,6.766195E2,-4.3510593E-2,9.722105E-3],"split_indices":[2,0,2,0,0],"split_type":[0,0,0,0,0],"sum_hessian":[4.753511E0,1.6222166E0,3.1312945E0,1.4472806E0,1.6840137E0],"tree_param":{"num_deleted":"0","num_feature":"3","num_nodes":"5","size_leaf_vector":"1"}},{"base_weights":[-2.2320154E-3,7.070842E-2,-8.756263E-2,-1.19383475E-2,4.1732725E-2,-5.132105E-2,1.2992165E-2],"categories":[],"categories_nodes":[],"categories_segments":[],"categories_sizes":[],"default_left":[0,0,0,0,0,0,0],"id":74,"left_children":[1,3,5,-1,-1,-1,-1],"loss_changes":[4.1873045E-2,3.30794E-2,4.1164763E-2,0E0,0E0,0E0,0E0],"parents":[2147483647,0,0,1,1,2,2],"right_children":[2,4,6,-1,-1,-1,-1],"split_conditions":[6.608079E2,5.6561505E2,7.238907E2,-1.19383475E-2,4.1732725E-2,-5.132105E-2,1.2992165E-2],"split_indices":[2,2,2,0,0,0,0],"split_type":[0,0,0,0,0,0,0],"sum_hessian":[4.732862E0,2.6440732E0,2.088789E0,1.1708124E0,1.4732609E0,1.087611E0,1.0011779E0],"tree_param":{"num_deleted":"0","num_feature":"3","num_nodes":"7","size_leaf_vector":"1"}},{"base_weights":[-3.12348E-3,-6.442032E-2,3.1014627E-2,-4.316985E-2,5.0048414E-3],"categories":[],"categories_nodes":[],"categories_segments":[],"categories_sizes":[],"default_left":[0,0,0,0,0],"id":75,"left_children":[1,3,-1,-1,-1],"loss_changes":[4.405165E-2,2.9805135E-2,0E0,0E0,0E0],"parents":[2147483647,0,0,1,1],"right_children":[2,4,-1,-1,-1],"split_conditions":[2.0954037E2,6.574443E2,3.1014627E-2,-4.316985E-2,5.0048414E-3],"split_indices":[1,2,0,0,0],"split_type":[0,0,0,0,0],"sum_hessian":[4.727503E0,3.2513876E0,1.4761156E0,1.25108E0,2.0003076E0],"tree_param":{"num_deleted":"0","num_feature":"3","num_nodes":"5","size_leaf_vector":"1"}},{"base_weights":[-3.4466283E-3,-3.224006E-2,5.4874156E-2,-1.0574387E-2,3.2866973E-2],"categories":[],"categories_nodes":[],"categories_segments":[],"categories_sizes":[],"default_left":[0,0,0,0,0],"id":76,"left_children":[1,-1,3,-1,-1],"loss_changes":[4.0550087E-2,0E0,2.5161088E-2,0E0,0E0],"parents":[2147483647,0,0,2,2],"right_children":[2,-1,4,-1,-1],"split_conditions":[5E0,-3.224006E-2,6.5843396E2,-1.0574387E-2,3.2866973E-2],"split_indices":[0,0,2,0,0],"split_type":[0,0,0,0,0],"sum_hessian":[4.7121396E0,1.3900961E0,3.3220437E0,1.3887124E0,1.9333311E0],"tree_param":{"num_deleted":"0","num_feature":"3","num_nodes":"5","size_leaf_vector":"1"}},{"base_weights":[-4.1949814E-3,7.4509256E-2,-9.523057E-2,4.2347446E-2,-1.0694959E-2,6.08906E-3,-4.9583327E-2],"categories":[],"categories_nodes":[],"categories_segments":[],"categories_sizes":[],"default_left":[0,0,0,0,0,0,0],"id":77,"left_children":[1,3,5,-1,-1,-1,-1],"loss_changes":[4.8109308E-2,3.1691767E-2,2.8385675E-2,0E0,0E0,0E0,0E0],"parents":[2147483647,0,0,1,1,2,2],"right_children":[2,4,6,-1,-1,-1,-1],"split_conditions":[6.608079E2,1.670242E2,1.415277E2,4.2347446E-2,-1.0694959E-2,6.08906E-3,-4.9583327E-2],"split_indices":[2,1,1,0,0,0,0],"split_type":[0,0,0,0,0,0,0],"sum_hessian":[4.7242703E0,2.6311035E0,2.0931668E0,1.4639665E0,1.167137E0,1.0581769E0,1.03499E0],"tree_param":{"num_deleted":"0","num_feature":"3","num_nodes":"7","size_leaf_vector":"1"}},{"base_weights":[-5.0663333E-3,-7.236835E-2,3.380485E-2,6.2841508E-3,-4.17867E-2],"categories":[],"categories_nodes":[],"categories_segments":[],"categories_sizes":[],"default_left":[0,0,0,0,0],"id":78,"left_children":[1,3,-1,-1,-1],"loss_changes":[5.3476404E-2,2.9445125E-2,0E0,0E0,0E0],"parents":[2147483647,0,0,1,1],"right_children":[2,4,-1,-1,-1],"split_conditions":[2.0954037E2,6.608079E2,3.380485E-2,6.2841508E-3,-4.17867E-2],"split_indices":[1,2,0,0,0],"split_type":[0,0,0,0,0],"sum_hessian":[4.7190065E0,3.2479656E0,1.471041E0,1.643383E0,1.6045824E0],"tree_param":{"num_deleted":"0","num_feature":"3","num_nodes":"5","size_leaf_vector":"1"}},{"base_weights":[-3.9476985E-3,-3.1205507E-2,5.2281003E-2,-2.046829E-2,3.5669018E-2],"categories":[],"categories_nodes":[],"categories_segments":[],"categories_sizes":[],"default_left":[0,0,0,0,0],"id":79,"left_children":[1,-1,3,-1,-1],"loss_changes":[3.7383363E-2,0E0,4.263455E-2,0E0,0E0],"parents":[2147483647,0,0,2,2],"right_children":[2,-1,4,-1,-1],"split_conditions":[1.06536545E2,-3.1205507E-2,6.539155E2,-2.046829E-2,3.5669018E-2],"split_indices":[1,0,2,0,0],"split_type":[0,0,0,0,0],"sum_hessian":[4.677283E0,1.3768955E0,3.3003871E0,1.1663138E0,2.1340735E0],"tree_param":{"num_deleted":"0","num_feature":"3","num_nodes":"5","size_leaf_vector":"1"}},{"base_weights":[-5.6327097E-3,2.9952096E-2,-6.2882036E-2,-5.4317158E-2,2.7966827E-2,2.4181496E-2,-9.71425E-3],"categories":[],"categories_nodes":[],"categories_segments":[],"categories_sizes":[],"default_left":[0,0,0,0,0,0,0],"id":80,"left_children":[1,-1,3,-1,5,-1,-1],"loss_changes":[4.0614113E-2,0E0,5.1221862E-2,0E0,1.3083008E-2,0E0,0E0],"parents":[2147483647,0,0,2,2,4,4],"right_children":[2,-1,4,-1,6,-1,-1],"split_conditions":[5.700436E2,2.9952096E-2,6.6005743E2,-5.4317158E-2,7.019731E2,2.4181496E-2,-9.71425E-3],"split_indices":[2,0,2,0,2,0,0],"split_type":[0,0,0,0,0,0,0],"sum_hessian":[4.686399E0,1.3870386E0,3.2993603E0,1.0024436E0,2.2969167E0,1.0475316E0,1.249385E0],"tree_param":{"num_deleted":"0","num_feature":"3","num_nodes":"7","size_leaf_vector":"1"}},{"base_weights":[-5.7346714E-3,6.557011E-2,-8.781697E-2,-1.2314521E-2,4.00078E-2,-4.8562214E-2,9.672402E-3],"categories":[],"categories_nodes":[],"categories_segments":[],"categories_sizes":[],"default_left":[0,0,0,0,0,0,0],"id":81,"left_children":[1,3,5,-1,-1,-1,-1],"loss_changes":[3.8922764E-2,3.1528078E-2,3.244029E-2,0E0,0E0,0E0,0E0],"parents":[2147483647,0,0,1,1,2,2],"right_children":[2,4,6,-1,-1,-1,-1],"split_conditions":[6.608079E2,5.6561505E2,7.2205414E2,-1.2314521E-2,4.00078E-2,-4.8562214E-2,9.672402E-3],"split_indices":[2,2,2,0,0,0,0],"split_type":[0,0,0,0,0,0,0],"sum_hessian":[4.6663914E0,2.6047847E0,2.0616066E0,1.1657578E0,1.439027E0,1.059665E0,1.0019417E0],"tree_param":{"num_deleted":"0","num_feature":"3","num_nodes":"7","size_leaf_vector":"1"}},{"base_weights":[-6.048666E-3,-6.4793974E-2,2.9013367E-2,5.722805E-3,-3.7501737E-2],"categories":[],"categories_nodes":[],"categories_segments":[],"categories_sizes":[],"default_left":[0,0,0,0,0],"id":82,"left_children":[1,3,-1,-1,-1],"loss_changes":[4.043477E-2,2.3595294E-2,0E0,0E0,0E0],"parents":[2147483647,0,0,1,1],"right_children":[2,4,-1,-1,-1],"split_conditions":[2.0954037E2,6.608079E2,2.9013367E-2,5.722805E-3,-3.7501737E-2],"split_indices":[1,2,0,0,0],"split_type":[0,0,0,0,0],"sum_hessian":[4.6601596E0,3.2001657E0,1.4599941E0,1.6228527E0,1.577313E0],"tree_param":{"num_deleted":"0","num_feature":"3","num_nodes":"5","size_leaf_vector":"1"}},{"base_weights":[-4.816539E-3,-3.323031E-2,4.9400434E-2,-1.5853697E-2,3.2005962E-2],"categories":[],"categories_nodes":[],"categories_segments":[],"categories_sizes":[],"default_left":[0,0,0,0,0],"id":83,"left_children":[1,-1,3,-1,-1],"loss_changes":[3.7780292E-2,0E0,3.1480744E-2,0E0,0E0],"parents":[2147483647,0,0,2,2],"right_children":[2,-1,4,-1,-1],"split_conditions":[4E0,-3.323031E-2,1.06536545E2,-1.5853697E-2,3.2005962E-2],"split_indices":[0,0,1,0,0],"split_type":[0,0,0,0,0],"sum_hessian":[4.624365E0,1.2122784E0,3.4120862E0,1.2530736E0,2.1590128E0],"tree_param":{"num_deleted":"0","num_feature":"3","num_nodes":"5","size_leaf_vector":"1"}},{"base_weights":[-6.437038E-3,-6.0918387E-2,2.6839683E-2,5.532958E-3,-3.549213E-2],"categories":[],"categories_nodes":[],"categories_segments":[],"categories_sizes":[],"default_left":[0,0,0,0,0],"id":84,"left_children":[1,3,-1,-1,-1],"loss_changes":[3.486055E-2,2.1240389E-2,0E0,0E0,0E0],"parents":[2147483647,0,0,1,1],"right_children":[2,4,-1,-1,-1],"split_conditions":[2.0954037E2,6.608079E2,2.6839683E-2,5.532958E-3,-3.549213E-2],"split_indices":[1,2,0,0,0],"split_type":[0,0,0,0,0],"sum_hessian":[4.6288967E0,3.1845655E0,1.4443312E0,1.6212295E0,1.5633359E0],"tree_param":{"num_deleted":"0","num_feature":"3","num_nodes":"5","size_leaf_vector":"1"}},{"base_weights":[-5.147001E-3,-3.0833831E-2,5.072954E-2,-1.35906115E-2,3.380605E-2],"categories":[],"categories_nodes":[],"categories_segments":[],"categories_sizes":[],"default_left":[0,0,0,0,0],"id":85,"left_children":[1,-1,3,-1,-1],"loss_changes":[3.5742786E-2,0E0,3.0265033E-2,0E0,0E0],"parents":[2147483647,0,0,2,2],"right_children":[2,-1,4,-1,-1],"split_conditions":[5E0,-3.0833831E-2,6.5843396E2,-1.35906115E-2,3.380605E-2],"split_indices":[0,0,2,0,0],"split_type":[0,0,0,0,0],"sum_hessian":[4.596115E0,1.3674257E0,3.2286892E0,1.3715907E0,1.8570985E0],"tree_param":{"num_deleted":"0","num_feature":"3","num_nodes":"5","size_leaf_vector":"1"}},{"base_weights":[-5.5356156E-3,2.7828105E-2,-5.9383493E-2,-3.9858487E-2,1.0565806E-2],"categories":[],"categories_nodes":[],"categories_segments":[],"categories_sizes":[],"default_left":[0,0,0,0,0],"id":86,"left_children":[1,-1,3,-1,-1],"loss_changes":[3.519076E-2,0E0,3.4102116E-2,0E0,0E0],"parents":[2147483647,0,0,2,2],"right_children":[2,-1,4,-1,-1],"split_conditions":[5.700436E2,2.7828105E-2,6.766195E2,-3.9858487E-2,1.0565806E-2],"split_indices":[2,0,2,0,0],"split_type":[0,0,0,0,0],"sum_hessian":[4.607815E0,1.3750709E0,3.2327437E0,1.5918993E0,1.6408445E0],"tree_param":{"num_deleted":"0","num_feature":"3","num_nodes":"5","size_leaf_vector":"1"}},{"base_weights":[-4.176563E-3,-5.5249628E-2,2.5438076E-2,7.906795E-3,-3.50579E-2],"categories":[],"categories_nodes":[],"categories_segments":[],"categories_sizes":[],"default_left":[0,0,0,0,0],"id":87,"left_children":[1,3,-1,-1,-1],"loss_changes":[3.0096704E-2,2.3987146E-2,0E0,0E0,0E0],"parents":[2147483647,0,0,1,1],"right_children":[2,4,-1,-1,-1],"split_conditions":[2.0954037E2,6.608079E2,2.5438076E-2,7.906795E-3,-3.50579E-2],"split_indices":[1,2,0,0,0],"split_type":[0,0,0,0,0],"sum_hessian":[4.5924325E0,3.1583817E0,1.4340509E0,1.6048669E0,1.5535148E0],"tree_param":{"num_deleted":"0","num_feature":"3","num_nodes":"5","size_leaf_vector":"1"}},{"base_weights":[-3.3059027E-3,-3.0273337E-2,5.2318092E-2,-1.4022212E-2,1.0659784E-1,6.629176E-2,-1.8456407E-2],"categories":[],"categories_nodes":[],"categories_segments":[],"categories_sizes":[],"default_left":[0,0,0,0,0,0,0],"id":88,"left_children":[1,-1,3,-1,5,-1,-1],"loss_changes":[3.5469197E-2,0E0,2.756871E-2,0E0,7.163556E-2,0E0,0E0],"parents":[2147483647,0,0,2,2,4,4],"right_children":[2,-1,4,-1,6,-1,-1],"split_conditions":[5E0,-3.0273337E-2,6.422496E2,-1.4022212E-2,6E0,6.629176E-2,-1.8456407E-2],"split_indices":[0,0,2,0,0,0,0],"split_type":[0,0,0,0,0,0,0],"sum_hessian":[4.5606284E0,1.3600099E0,3.2006183E0,1.1821412E0,2.0184772E0,1.014151E0,1.0043262E0],"tree_param":{"num_deleted":"0","num_feature":"3","num_nodes":"7","size_leaf_vector":"1"}},{"base_weights":[-1.8628008E-3,-5.9649635E-2,2.7811727E-2,-5.582878E-2,3.0692523E-2],"categories":[],"categories_nodes":[],"categories_segments":[],"categories_sizes":[],"default_left":[0,0,0,0,0],"id":89,"left_children":[1,3,-1,-1,-1],"loss_changes":[3.6098413E-2,1.02604754E-1,0E0,0E0,0E0],"parents":[2147483647,0,0,1,1],"right_children":[2,4,-1,-1,-1],"split_conditions":[6E0,6.574443E2,2.7811727E-2,-5.582878E-2,3.0692523E-2],"split_indices":[0,2,0,0,0],"split_type":[0,0,0,0,0],"sum_hessian":[4.593701E0,3.0805511E0,1.5131497E0,1.6462379E0,1.4343132E0],"tree_param":{"num_deleted":"0","num_feature":"3","num_nodes":"5","size_leaf_vector":"1"}},{"base_weights":[-8.7561295E-4,3.0436067E-2,-6.6546366E-2,-4.0221617E-2,5.406034E-3],"categories":[],"categories_nodes":[],"categories_segments":[],"categories_sizes":[],"default_left":[0,0,0,0,0],"id":90,"left_children":[1,-1,3,-1,-1],"loss_changes":[4.4402044E-2,0E0,2.535208E-2,0E0,0E0],"parents":[2147483647,0,0,2,2],"right_children":[2,-1,4,-1,-1],"split_conditions":[5.966091E2,3.0436067E-2,6.766195E2,-4.0221617E-2,5.406034E-3],"split_indices":[2,0,2,0,0],"split_type":[0,0,0,0,0],"sum_hessian":[4.6027513E0,1.5862112E0,3.01654E0,1.3517634E0,1.6647767E0],"tree_param":{"num_deleted":"0","num_feature":"3","num_nodes":"5","size_leaf_vector":"1"}},{"base_weights":[-1.4210955E-3,7.206606E-2,-8.683982E-2,-8.69888E-3,3.9939627E-2,1.086138E-2,-5.045478E-2],"categories":[],"categories_nodes":[],"categories_segments":[],"categories_sizes":[],"default_left":[0,0,0,0,0,0,0],"id":91,"left_children":[1,3,5,-1,-1,-1,-1],"loss_changes":[4.131092E-2,2.5757996E-2,3.647507E-2,0E0,0E0,0E0,0E0],"parents":[2147483647,0,0,1,1,2,2],"right_children":[2,4,6,-1,-1,-1,-1],"split_conditions":[6.608079E2,5.6561505E2,1.415277E2,-8.69888E-3,3.9939627E-2,1.086138E-2,-5.045478E-2],"split_indices":[2,2,1,0,0,0,0],"split_type":[0,0,0,0,0,0,0],"sum_hessian":[4.5841513E0,2.5482066E0,2.0359445E0,1.1575929E0,1.3906138E0,1.0311192E0,1.0048254E0],"tree_param":{"num_deleted":"0","num_feature":"3","num_nodes":"7","size_leaf_vector":"1"}},{"base_weights":[-2.5440138E-3,-6.35088E-2,3.0654691E-2,5.204895E-3,-3.5919648E-2],"categories":[],"categories_nodes":[],"categories_segments":[],"categories_sizes":[],"default_left":[0,0,0,0,0],"id":92,"left_children":[1,3,-1,-1,-1],"loss_changes":[4.209367E-2,2.0904712E-2,0E0,0E0,0E0],"parents":[2147483647,0,0,1,1],"right_children":[2,4,-1,-1,-1],"split_conditions":[2.0954037E2,6.608079E2,3.0654691E-2,5.204895E-3,-3.5919648E-2],"split_indices":[1,2,0,0,0],"split_type":[0,0,0,0,0],"sum_hessian":[4.5765595E0,3.1414104E0,1.4351493E0,1.5720128E0,1.5693976E0],"tree_param":{"num_deleted":"0","num_feature":"3","num_nodes":"5","size_leaf_vector":"1"}},{"base_weights":[-1.8531899E-3,-5.2282333E-2,2.5364548E-2,-3.7317276E-2,5.839794E-3],"categories":[],"categories_nodes":[],"categories_segments":[],"categories_sizes":[],"default_left":[0,0,0,0,0],"id":93,"left_children":[1,3,-1,-1,-1],"loss_changes":[2.8567938E-2,2.3723548E-2,0E0,0E0,0E0],"parents":[2147483647,0,0,1,1],"right_children":[2,4,-1,-1,-1],"split_conditions":[2.0954037E2,6.574443E2,2.5364548E-2,-3.7317276E-2,5.839794E-3],"split_indices":[1,2,0,0,0],"split_type":[0,0,0,0,0],"sum_hessian":[4.5420346E0,3.117417E0,1.4246174E0,1.1888677E0,1.9285494E0],"tree_param":{"num_deleted":"0","num_feature":"3","num_nodes":"5","size_leaf_vector":"1"}},{"base_weights":[-2.4081192E-3,-2.8046537E-2,4.932758E-2,-9.263702E-3,9.011292E-2,5.73919E-2,-1.7206464E-2],"categories":[],"categories_nodes":[],"categories_segments":[],"categories_sizes":[],"default_left":[0,0,0,0,0,0,0],"id":94,"left_children":[1,-1,3,-1,5,-1,-1],"loss_changes":[3.067511E-2,0E0,1.646331E-2,0E0,5.615202E-2,0E0,0E0],"parents":[2147483647,0,0,2,2,4,4],"right_children":[2,-1,4,-1,6,-1,-1],"split_conditions":[5E0,-2.8046537E-2,6.422496E2,-9.263702E-3,6E0,5.73919E-2,-1.7206464E-2],"split_indices":[0,0,2,0,0,0,0],"split_type":[0,0,0,0,0,0,0],"sum_hessian":[4.531191E0,1.3490891E0,3.1821017E0,1.1545352E0,2.0275664E0,1.0261441E0,1.0014223E0],"tree_param":{"num_deleted":"0","num_feature":"3","num_nodes":"7","size_leaf_vector":"1"}},{"base_weights":[-1.306016E-3,2.6162798E-2,-5.7968594E-2,-3.9765645E-2,8.628917E-3],"categories":[],"categories_nodes":[],"categories_segments":[],"categories_sizes":[],"default_left":[0,0,0,0,0],"id":95,"left_children":[1,-1,3,-1,-1],"loss_changes":[3.2942265E-2,0E0,2.962766E-2,0E0,0E0],"parents":[2147483647,0,0,2,2],"right_children":[2,-1,4,-1,-1],"split_conditions":[5.966091E2,2.6162798E-2,6.766195E2,-3.9765645E-2,8.628917E-3],"split_indices":[2,0,2,0,0],"split_type":[0,0,0,0,0],"sum_hessian":[4.560128E0,1.5693977E0,2.9907305E0,1.323933E0,1.6667976E0],"tree_param":{"num_deleted":"0","num_feature":"3","num_nodes":"5","size_leaf_vector":"1"}},{"base_weights":[-1.8389492E-3,-5.6554627E-2,2.6509563E-2,-5.0801985E-2,2.6291182E-2],"categories":[],"categories_nodes":[],"categories_segments":[],"categories_sizes":[],"default_left":[0,0,0,0,0],"id":96,"left_children":[1,3,-1,-1,-1],"loss_changes":[3.236454E-2,8.088506E-2,0E0,0E0,0E0],"parents":[2147483647,0,0,1,1],"right_children":[2,4,-1,-1,-1],"split_conditions":[6E0,6.574443E2,2.6509563E-2,-5.0801985E-2,2.6291182E-2],"split_indices":[0,2,0,0,0],"split_type":[0,0,0,0,0],"sum_hessian":[4.544853E0,3.0611005E0,1.4837527E0,1.6197462E0,1.4413544E0],"tree_param":{"num_deleted":"0","num_feature":"3","num_nodes":"5","size_leaf_vector":"1"}},{"base_weights":[-9.5977704E-4,7.8124754E-2,-9.161568E-2,-3.6582155E-3,3.8256973E-2,7.465916E-3,-4.944913E-2],"categories":[],"categories_nodes":[],"categories_segments":[],"categories_sizes":[],"default_left":[0,0,0,0,0,0,0],"id":97,"left_children":[1,3,5,-1,-1,-1,-1],"loss_changes":[4.6964895E-2,1.7193727E-2,3.009347E-2,0E0,0E0,0E0,0E0],"parents":[2147483647,0,0,1,1,2,2],"right_children":[2,4,6,-1,-1,-1,-1],"split_conditions":[6.608079E2,5.6561505E2,1.415277E2,-3.6582155E-3,3.8256973E-2,7.465916E-3,-4.944913E-2],"split_indices":[2,2,1,0,0,0,0],"split_type":[0,0,0,0,0,0,0],"sum_hessian":[4.552348E0,2.5051682E0,2.0471797E0,1.1520115E0,1.3531567E0,1.044779E0,1.0024009E0],"tree_param":{"num_deleted":"0","num_feature":"3","num_nodes":"7","size_leaf_vector":"1"}},{"base_weights":[-2.0511588E-3,-6.1231688E-2,2.9786943E-2,7.6088253E-3,-3.6764007E-2],"categories":[],"categories_nodes":[],"categories_segments":[],"categories_sizes":[],"default_left":[0,0,0,0,0],"id":98,"left_children":[1,3,-1,-1,-1],"loss_changes":[3.9322212E-2,2.497201E-2,0E0,0E0,0E0],"parents":[2147483647,0,0,1,1],"right_children":[2,4,-1,-1,-1],"split_conditions":[2.0954037E2,6.608079E2,2.9786943E-2,7.6088253E-3,-3.6764007E-2],"split_indices":[1,2,0,0,0],"split_type":[0,0,0,0,0],"sum_hessian":[4.542813E0,3.1178522E0,1.4249606E0,1.5355569E0,1.5822954E0],"tree_param":{"num_deleted":"0","num_feature":"3","num_nodes":"5","size_leaf_vector":"1"}},{"base_weights":[-1.3858384E-3,2.5713408E-2,-4.995864E-2,-3.5456173E-2,9.976759E-3],"categories":[],"categories_nodes":[],"categories_segments":[],"categories_sizes":[],"default_left":[0,0,0,0,0],"id":99,"left_children":[1,-1,3,-1,-1],"loss_changes":[2.7586306E-2,0E0,2.7595498E-2,0E0,0E0],"parents":[2147483647,0,0,2,2],"right_children":[2,-1,4,-1,-1],"split_conditions":[5.700436E2,2.5713408E-2,6.766195E2,-3.5456173E-2,9.976759E-3],"split_indices":[2,0,2,0,0],"split_type":[0,0,0,0,0],"sum_hessian":[4.508564E0,1.3404218E0,3.168142E0,1.5098915E0,1.6582507E0],"tree_param":{"num_deleted":"0","num_feature":"3","num_nodes":"5","size_leaf_vector":"1"}}]},"name":"gbtree"},"learner_model_param":{"base_score":"[1.0225E-1]","boost_from_average":"1","num_class":"0","num_feature":"3","num_target":"1"},"objective":{"name":"binary:logistic","reg_loss_param":{"scale_pos_weight":"1"}}},"version":[3,1,3]}